<?xml version="1.0"?>
<MethodSetup Method="BDT::BDTG1">
  <GeneralInfo>
    <Info name="TMVA Release" value="4.2.1 [262657]"/>
    <Info name="ROOT Release" value="6.24/06 [399366]"/>
    <Info name="Creator" value="pvaucell"/>
    <Info name="Date" value="Thu Apr 28 08:57:47 2022"/>
    <Info name="Host" value="Linux sbgat310.in2p3.fr 3.10.0-1160.36.2.el7.x86_64 #1 SMP Wed Jul 21 11:57:15 UTC 2021 x86_64 x86_64 x86_64 GNU/Linux"/>
    <Info name="Dir" value="/opt/sbg/cms/ui2_data1/pvaucell/LLTopAna/MVA/AnalysisCode"/>
    <Info name="Training events" value="20000"/>
    <Info name="TrainingTime" value="4.32488081e+01"/>
    <Info name="AnalysisType" value="Classification"/>
  </GeneralInfo>
  <Options>
    <Option name="V" modified="Yes">False</Option>
    <Option name="VerbosityLevel" modified="No">Default</Option>
    <Option name="VarTransform" modified="No">None</Option>
    <Option name="H" modified="Yes">False</Option>
    <Option name="CreateMVAPdfs" modified="No">False</Option>
    <Option name="IgnoreNegWeightsInTraining" modified="No">False</Option>
    <Option name="NTrees" modified="Yes">500</Option>
    <Option name="MaxDepth" modified="Yes">4</Option>
    <Option name="MinNodeSize" modified="Yes">2.5%</Option>
    <Option name="nCuts" modified="Yes">20</Option>
    <Option name="BoostType" modified="Yes">Grad</Option>
    <Option name="AdaBoostR2Loss" modified="No">quadratic</Option>
    <Option name="UseBaggedBoost" modified="Yes">True</Option>
    <Option name="Shrinkage" modified="Yes">1.000000e-01</Option>
    <Option name="AdaBoostBeta" modified="No">5.000000e-01</Option>
    <Option name="UseRandomisedTrees" modified="Yes">False</Option>
    <Option name="UseNvars" modified="No">3</Option>
    <Option name="UsePoissonNvars" modified="No">True</Option>
    <Option name="BaggedSampleFraction" modified="No">6.000000e-01</Option>
    <Option name="UseYesNoLeaf" modified="Yes">True</Option>
    <Option name="NegWeightTreatment" modified="No">pray</Option>
    <Option name="Css" modified="No">1.000000e+00</Option>
    <Option name="Cts_sb" modified="No">1.000000e+00</Option>
    <Option name="Ctb_ss" modified="No">1.000000e+00</Option>
    <Option name="Cbb" modified="No">1.000000e+00</Option>
    <Option name="NodePurityLimit" modified="No">5.000000e-01</Option>
    <Option name="SeparationType" modified="Yes">giniindex</Option>
    <Option name="RegressionLossFunctionBDTG" modified="No">huber</Option>
    <Option name="HuberQuantile" modified="No">7.000000e-01</Option>
    <Option name="DoBoostMonitor" modified="Yes">True</Option>
    <Option name="UseFisherCuts" modified="No">False</Option>
    <Option name="MinLinCorrForFisher" modified="No">8.000000e-01</Option>
    <Option name="UseExclusiveVars" modified="No">False</Option>
    <Option name="DoPreselection" modified="No">False</Option>
    <Option name="SigToBkgFraction" modified="No">1.000000e+00</Option>
    <Option name="PruneMethod" modified="No">nopruning</Option>
    <Option name="PruneStrength" modified="No">0.000000e+00</Option>
    <Option name="PruningValFraction" modified="No">5.000000e-01</Option>
    <Option name="SkipNormalization" modified="No">False</Option>
    <Option name="nEventsMin" modified="No">0</Option>
    <Option name="UseBaggedGrad" modified="No">False</Option>
    <Option name="GradBaggingFraction" modified="Yes">6.000000e-01</Option>
    <Option name="UseNTrainEvents" modified="No">0</Option>
    <Option name="NNodesMax" modified="No">0</Option>
  </Options>
  <Variables NVar="8">
    <Variable VarIndex="0" Expression="mva_track_pt" Label="mva_track_pt" Title="mva_track_pt" Unit="" Internal="mva_track_pt" Type="F" Min="1.00007391e+00" Max="1.03221562e+04"/>
    <Variable VarIndex="1" Expression="mva_track_eta" Label="mva_track_eta" Title="mva_track_eta" Unit="" Internal="mva_track_eta" Type="F" Min="-2.49738598e+00" Max="2.49904609e+00"/>
    <Variable VarIndex="2" Expression="mva_track_nchi2" Label="mva_track_nchi2" Title="mva_track_nchi2" Unit="" Internal="mva_track_nchi2" Type="F" Min="3.04265967e-07" Max="4.99738836e+00"/>
    <Variable VarIndex="3" Expression="mva_track_nhits" Label="mva_track_nhits" Title="mva_track_nhits" Unit="" Internal="mva_track_nhits" Type="F" Min="3.00000000e+00" Max="3.00000000e+01"/>
    <Variable VarIndex="4" Expression="mva_track_algo" Label="mva_track_algo" Title="mva_track_algo" Unit="" Internal="mva_track_algo" Type="F" Min="2.00000000e+00" Max="2.40000000e+01"/>
    <Variable VarIndex="5" Expression="mva_ntrk10" Label="mva_ntrk10" Title="mva_ntrk10" Unit="" Internal="mva_ntrk10" Type="F" Min="0.00000000e+00" Max="6.00000000e+01"/>
    <Variable VarIndex="6" Expression="mva_drSig" Label="mva_drSig" Title="mva_drSig" Unit="" Internal="mva_drSig" Type="F" Min="5.00015163e+00" Max="1.96815684e+04"/>
    <Variable VarIndex="7" Expression="mva_track_isinjet" Label="mva_track_isinjet" Title="mva_track_isinjet" Unit="" Internal="mva_track_isinjet" Type="F" Min="0.00000000e+00" Max="1.00000000e+00"/>
  </Variables>
  <Spectators NSpec="0"/>
  <Classes NClass="2">
    <Class Name="Signal" Index="0"/>
    <Class Name="Background" Index="1"/>
  </Classes>
  <Transformations NTransformations="0"/>
  <MVAPdfs/>
  <Weights NTrees="500" AnalysisType="1">
    <BinaryTree type="DecisionTree" boostWeight="1.0000000000000000e+00" itree="0">
      <Node pos="s" depth="0" NCoef="0" IVar="5" Cut="5.7142858505249023e+00" cType="1" res="-3.0994296539574862e-03" rms="4.9999040365219116e-01" purity="4.9690055847167969e-01" nType="0">
        <Node pos="l" depth="1" NCoef="0" IVar="7" Cut="4.7619048506021500e-02" cType="1" res="-2.1513654291629791e-01" rms="4.5134937763214111e-01" purity="2.8486344218254089e-01" nType="0">
          <Node pos="l" depth="2" NCoef="0" IVar="4" Cut="9.3333330154418945e+00" cType="1" res="-3.5252988338470459e-01" rms="3.5457396507263184e-01" purity="1.4747013151645660e-01" nType="0">
            <Node pos="l" depth="3" NCoef="0" IVar="5" Cut="2.1428570747375488e+00" cType="1" res="-4.4283035397529602e-01" rms="2.3216646909713745e-01" purity="5.7169634848833084e-02" nType="0">
              <Node pos="l" depth="4" NCoef="0" IVar="-1" Cut="0.0000000000000000e+00" cType="1" res="-9.2501461505889893e-02" rms="1.8996572494506836e-01" purity="3.7492677569389343e-02" nType="-99"/>
              <Node pos="r" depth="4" NCoef="0" IVar="-1" Cut="0.0000000000000000e+00" cType="1" res="-7.2833724319934845e-02" rms="3.4260943531990051e-01" purity="1.3583138585090637e-01" nType="-99"/>
            </Node>
            <Node pos="r" depth="3" NCoef="0" IVar="5" Cut="1.1904761791229248e+00" cType="1" res="-2.4541412293910980e-01" rms="4.3562817573547363e-01" purity="2.5458589196205139e-01" nType="0">
              <Node pos="l" depth="4" NCoef="0" IVar="-1" Cut="0.0000000000000000e+00" cType="1" res="-6.1146050691604614e-02" rms="3.9563748240470886e-01" purity="1.9426974654197693e-01" nType="-99"/>
              <Node pos="r" depth="4" NCoef="0" IVar="-1" Cut="0.0000000000000000e+00" cType="1" res="-2.1739129442721605e-03" rms="4.9988183379173279e-01" purity="4.8913043737411499e-01" nType="-99"/>
            </Node>
          </Node>
          <Node pos="r" depth="2" NCoef="0" IVar="5" Cut="2.1428570747375488e+00" cType="1" res="-3.2023042440414429e-02" rms="4.9897345900535583e-01" purity="4.6797695755958557e-01" nType="0">
            <Node pos="l" depth="3" NCoef="0" IVar="3" Cut="9.8571424484252930e+00" cType="1" res="-1.0953298211097717e-01" rms="4.8785501718521118e-01" purity="3.9046701788902283e-01" nType="0">
              <Node pos="l" depth="4" NCoef="0" IVar="-1" Cut="0.0000000000000000e+00" cType="1" res="-4.7876447439193726e-02" rms="4.3897169828414917e-01" purity="2.6061776280403137e-01" nType="-99"/>
              <Node pos="r" depth="4" NCoef="0" IVar="-1" Cut="0.0000000000000000e+00" cType="1" res="-1.3277742080390453e-02" rms="4.9557295441627502e-01" purity="4.3361130356788635e-01" nType="-99"/>
            </Node>
            <Node pos="r" depth="3" NCoef="0" IVar="2" Cut="9.0630841255187988e-01" cType="1" res="1.5217390656471252e-01" rms="4.7628048062324524e-01" purity="6.5217393636703491e-01" nType="0">
              <Node pos="l" depth="4" NCoef="0" IVar="-1" Cut="0.0000000000000000e+00" cType="1" res="4.1950114071369171e-02" rms="4.5387741923332214e-01" purity="7.0975059270858765e-01" nType="-99"/>
              <Node pos="r" depth="4" NCoef="0" IVar="-1" Cut="0.0000000000000000e+00" cType="1" res="1.8706697970628738e-02" rms="4.9117359519004822e-01" purity="5.9353351593017578e-01" nType="-99"/>
            </Node>
          </Node>
        </Node>
        <Node pos="r" depth="1" NCoef="0" IVar="3" Cut="9.1904764175415039e+00" cType="1" res="2.7679771184921265e-01" rms="4.1639289259910583e-01" purity="7.7679771184921265e-01" nType="0">
          <Node pos="l" depth="2" NCoef="0" IVar="-1" Cut="0.0000000000000000e+00" cType="1" res="-1.6629712656140327e-02" rms="4.9303784966468811e-01" purity="4.1685143113136292e-01" nType="-99"/>
          <Node pos="r" depth="2" NCoef="0" IVar="4" Cut="6.1904764175415039e+00" cType="1" res="3.1087321043014526e-01" rms="3.9160931110382080e-01" purity="8.1087321043014526e-01" nType="0">
            <Node pos="l" depth="3" NCoef="0" IVar="-1" Cut="0.0000000000000000e+00" cType="1" res="2.5507900863885880e-02" rms="4.8346009850502014e-01" purity="6.2753951549530029e-01" nType="-99"/>
            <Node pos="r" depth="3" NCoef="0" IVar="4" Cut="1.0238095283508301e+01" cType="1" res="3.2966905832290649e-01" rms="3.7592327594757080e-01" purity="8.2966905832290649e-01" nType="0">
              <Node pos="l" depth="4" NCoef="0" IVar="-1" Cut="0.0000000000000000e+00" cType="1" res="6.9706663489341736e-02" rms="3.5850316286087036e-01" purity="8.4853333234786987e-01" nType="-99"/>
              <Node pos="r" depth="4" NCoef="0" IVar="-1" Cut="0.0000000000000000e+00" cType="1" res="4.1155867278575897e-02" rms="4.5569163560867310e-01" purity="7.0577931404113770e-01" nType="-99"/>
            </Node>
          </Node>
        </Node>
      </Node>
    </BinaryTree>
    <BinaryTree type="DecisionTree" boostWeight="1.0000000000000000e+00" itree="1">
      <Node pos="s" depth="0" NCoef="0" IVar="5" Cut="5.5238094329833984e+00" cType="1" res="7.9585541971027851e-04" rms="4.8182219266891479e-01" purity="5.0016355514526367e-01" nType="0">
        <Node pos="l" depth="1" NCoef="0" IVar="7" Cut="4.7619048506021500e-02" cType="1" res="-1.9735512137413025e-01" rms="4.3990343809127808e-01" purity="2.8045079112052917e-01" nType="0">
          <Node pos="l" depth="2" NCoef="0" IVar="4" Cut="9.3333330154418945e+00" cType="1" res="-3.2300642132759094e-01" rms="3.4411865472793579e-01" purity="1.4150708913803101e-01" nType="0">
            <Node pos="l" depth="3" NCoef="0" IVar="3" Cut="1.0428571701049805e+01" cType="1" res="-4.0095219016075134e-01" rms="2.2691833972930908e-01" purity="5.4726369678974152e-02" nType="0">
              <Node pos="l" depth="4" NCoef="0" IVar="-1" Cut="0.0000000000000000e+00" cType="1" res="-9.0101212263107300e-02" rms="9.4200849533081055e-02" purity="8.9514069259166718e-03" nType="-99"/>
              <Node pos="r" depth="4" NCoef="0" IVar="-1" Cut="0.0000000000000000e+00" cType="1" res="-7.5756117701530457e-02" rms="2.7022305130958557e-01" purity="7.9776063561439514e-02" nType="-99"/>
            </Node>
            <Node pos="r" depth="3" NCoef="0" IVar="5" Cut="2.3809523880481720e-01" cType="1" res="-2.2779200971126556e-01" rms="4.2858278751373291e-01" purity="2.4751381576061249e-01" nType="0">
              <Node pos="l" depth="4" NCoef="0" IVar="-1" Cut="0.0000000000000000e+00" cType="1" res="-6.0592975467443466e-02" rms="3.7353745102882385e-01" purity="1.6763006150722504e-01" nType="-99"/>
              <Node pos="r" depth="4" NCoef="0" IVar="-1" Cut="0.0000000000000000e+00" cType="1" res="-1.5643250197172165e-02" rms="4.8934221267700195e-01" purity="4.0901502966880798e-01" nType="-99"/>
            </Node>
          </Node>
          <Node pos="r" depth="2" NCoef="0" IVar="6" Cut="2.1050007629394531e+02" cType="1" res="-2.3133093491196632e-02" rms="4.9537548422813416e-01" purity="4.7310343384742737e-01" nType="0">
            <Node pos="l" depth="3" NCoef="0" IVar="5" Cut="1.1904761791229248e+00" cType="1" res="-7.8791595995426178e-02" rms="4.8936980962753296e-01" purity="4.1596990823745728e-01" nType="0">
              <Node pos="l" depth="4" NCoef="0" IVar="-1" Cut="0.0000000000000000e+00" cType="1" res="-3.1581699848175049e-02" rms="4.6937814354896545e-01" purity="3.3031088113784790e-01" nType="-99"/>
              <Node pos="r" depth="4" NCoef="0" IVar="-1" Cut="0.0000000000000000e+00" cType="1" res="1.3017766177654266e-02" rms="4.9227872490882874e-01" purity="5.7193398475646973e-01" nType="-99"/>
            </Node>
            <Node pos="r" depth="3" NCoef="0" IVar="-1" Cut="0.0000000000000000e+00" cType="1" res="4.7823172062635422e-02" rms="4.3585887551307678e-01" purity="7.4212598800659180e-01" nType="-99"/>
          </Node>
        </Node>
        <Node pos="r" depth="1" NCoef="0" IVar="3" Cut="7.9523811340332031e+00" cType="1" res="2.5911247730255127e-01" rms="4.0572005510330200e-01" purity="7.8658878803253174e-01" nType="0">
          <Node pos="l" depth="2" NCoef="0" IVar="-1" Cut="0.0000000000000000e+00" cType="1" res="-4.3349165469408035e-02" rms="4.4651427865028381e-01" purity="2.7500000596046448e-01" nType="-99"/>
          <Node pos="r" depth="2" NCoef="0" IVar="7" Cut="4.7619048506021500e-02" cType="1" res="2.8963071107864380e-01" rms="3.8331049680709839e-01" purity="8.1940269470214844e-01" nType="0">
            <Node pos="l" depth="3" NCoef="0" IVar="4" Cut="8.2857141494750977e+00" cType="1" res="1.8907806277275085e-01" rms="4.4695165753364563e-01" purity="7.1727269887924194e-01" nType="0">
              <Node pos="l" depth="4" NCoef="0" IVar="-1" Cut="0.0000000000000000e+00" cType="1" res="1.0459593497216702e-02" rms="4.8996728658676147e-01" purity="5.7739555835723877e-01" nType="-99"/>
              <Node pos="r" depth="4" NCoef="0" IVar="-1" Cut="0.0000000000000000e+00" cType="1" res="5.4115861654281616e-02" rms="3.9826139807701111e-01" purity="7.9942280054092407e-01" nType="-99"/>
            </Node>
            <Node pos="r" depth="3" NCoef="0" IVar="5" Cut="8.4761905670166016e+00" cType="1" res="3.1807193160057068e-01" rms="3.5820773243904114e-01" purity="8.4829002618789673e-01" nType="0">
              <Node pos="l" depth="4" NCoef="0" IVar="-1" Cut="0.0000000000000000e+00" cType="1" res="5.5018533021211624e-02" rms="3.9482754468917847e-01" purity="8.0527639389038086e-01" nType="-99"/>
              <Node pos="r" depth="4" NCoef="0" IVar="-1" Cut="0.0000000000000000e+00" cType="1" res="6.6148974001407623e-02" rms="3.4725263714790344e-01" purity="8.5935986042022705e-01" nType="-99"/>
            </Node>
          </Node>
        </Node>
      </Node>
    </BinaryTree>
    <BinaryTree type="DecisionTree" boostWeight="1.0000000000000000e+00" itree="2">
      <Node pos="s" depth="0" NCoef="0" IVar="5" Cut="5.5238094329833984e+00" cType="1" res="4.8296954482793808e-03" rms="4.6681362390518188e-01" purity="5.0567477941513062e-01" nType="0">
        <Node pos="l" depth="1" NCoef="0" IVar="7" Cut="4.7619048506021500e-02" cType="1" res="-1.7175653576850891e-01" rms="4.3531703948974609e-01" purity="2.8762641549110413e-01" nType="0">
          <Node pos="l" depth="2" NCoef="0" IVar="4" Cut="9.3333330154418945e+00" cType="1" res="-2.8997543454170227e-01" rms="3.4169882535934448e-01" purity="1.4244185388088226e-01" nType="0">
            <Node pos="l" depth="3" NCoef="0" IVar="4" Cut="8.3333330154418945e+00" cType="1" res="-3.5573235154151917e-01" rms="2.3712044954299927e-01" purity="6.0361217707395554e-02" nType="0">
              <Node pos="l" depth="4" NCoef="0" IVar="-1" Cut="0.0000000000000000e+00" cType="1" res="-8.0648533999919891e-02" rms="1.5443654358386993e-01" purity="2.4716787040233612e-02" nType="-99"/>
              <Node pos="r" depth="4" NCoef="0" IVar="-1" Cut="0.0000000000000000e+00" cType="1" res="-6.6840760409832001e-02" rms="2.8614535927772522e-01" purity="9.0909093618392944e-02" nType="-99"/>
            </Node>
            <Node pos="r" depth="3" NCoef="0" IVar="5" Cut="2.3809523880481720e-01" cType="1" res="-2.0762273669242859e-01" rms="4.2469984292984009e-01" purity="2.4523809552192688e-01" nType="0">
              <Node pos="l" depth="4" NCoef="0" IVar="-1" Cut="0.0000000000000000e+00" cType="1" res="-5.6579757481813431e-02" rms="3.6723759770393372e-01" purity="1.6068223118782043e-01" nType="-99"/>
              <Node pos="r" depth="4" NCoef="0" IVar="-1" Cut="0.0000000000000000e+00" cType="1" res="-1.3561668805778027e-02" rms="4.9028855562210083e-01" purity="4.1166079044342041e-01" nType="-99"/>
            </Node>
          </Node>
          <Node pos="r" depth="2" NCoef="0" IVar="3" Cut="8.9523811340332031e+00" cType="1" res="-1.9599953666329384e-02" rms="4.9192175269126892e-01" purity="4.7448980808258057e-01" nType="0">
            <Node pos="l" depth="3" NCoef="0" IVar="-1" Cut="0.0000000000000000e+00" cType="1" res="-5.4213281720876694e-02" rms="4.0567502379417419e-01" purity="2.0698924362659454e-01" nType="-99"/>
            <Node pos="r" depth="3" NCoef="0" IVar="5" Cut="2.1428570747375488e+00" cType="1" res="1.6647376120090485e-02" rms="4.9276515841484070e-01" purity="5.1323986053466797e-01" nType="0">
              <Node pos="l" depth="4" NCoef="0" IVar="-1" Cut="0.0000000000000000e+00" cType="1" res="-9.9308099597692490e-03" rms="4.9265822768211365e-01" purity="4.3403548002243042e-01" nType="-99"/>
              <Node pos="r" depth="4" NCoef="0" IVar="-1" Cut="0.0000000000000000e+00" cType="1" res="3.4706220030784607e-02" rms="4.5638862252235413e-01" purity="7.0026177167892456e-01" nType="-99"/>
            </Node>
          </Node>
        </Node>
        <Node pos="r" depth="1" NCoef="0" IVar="3" Cut="8.1428575515747070e+00" cType="1" res="2.2689174115657806e-01" rms="4.0635177493095398e-01" purity="7.7987658977508545e-01" nType="0">
          <Node pos="l" depth="2" NCoef="0" IVar="-1" Cut="0.0000000000000000e+00" cType="1" res="-2.3567678406834602e-02" rms="4.7790396213531494e-01" purity="3.6069652438163757e-01" nType="-99"/>
          <Node pos="r" depth="2" NCoef="0" IVar="7" Cut="4.7619048506021500e-02" cType="1" res="2.5488436222076416e-01" rms="3.8672441244125366e-01" purity="8.1395345926284790e-01" nType="0">
            <Node pos="l" depth="3" NCoef="0" IVar="0" Cut="1.7495635747909546e+00" cType="1" res="1.7746573686599731e-01" rms="4.4053632020950317e-01" purity="7.2639858722686768e-01" nType="0">
              <Node pos="l" depth="4" NCoef="0" IVar="-1" Cut="0.0000000000000000e+00" cType="1" res="1.4437891542911530e-02" rms="4.8067480325698853e-01" purity="6.1842107772827148e-01" nType="-99"/>
              <Node pos="r" depth="4" NCoef="0" IVar="-1" Cut="0.0000000000000000e+00" cType="1" res="6.0226719826459885e-02" rms="3.5345852375030518e-01" purity="8.4888058900833130e-01" nType="-99"/>
            </Node>
            <Node pos="r" depth="3" NCoef="0" IVar="5" Cut="2.0857143402099609e+01" cType="1" res="2.7818530797958374e-01" rms="3.6580133438110352e-01" purity="8.4030520915985107e-01" nType="0">
              <Node pos="l" depth="4" NCoef="0" IVar="-1" Cut="0.0000000000000000e+00" cType="1" res="5.3343217819929123e-02" rms="3.7887406349182129e-01" purity="8.2544070482254028e-01" nType="-99"/>
              <Node pos="r" depth="4" NCoef="0" IVar="-1" Cut="0.0000000000000000e+00" cType="1" res="6.6656313836574554e-02" rms="3.1539234519004822e-01" purity="8.8766521215438843e-01" nType="-99"/>
            </Node>
          </Node>
        </Node>
      </Node>
    </BinaryTree>
    <BinaryTree type="DecisionTree" boostWeight="1.0000000000000000e+00" itree="3">
      <Node pos="s" depth="0" NCoef="0" IVar="5" Cut="2.8571429252624512e+00" cType="1" res="-2.1822265989612788e-04" rms="4.5225507020950317e-01" purity="4.9937930703163147e-01" nType="0">
        <Node pos="l" depth="1" NCoef="0" IVar="7" Cut="4.7619048506021500e-02" cType="1" res="-2.1073009073734283e-01" rms="3.9687332510948181e-01" purity="2.1743969619274139e-01" nType="0">
          <Node pos="l" depth="2" NCoef="0" IVar="4" Cut="9.3333330154418945e+00" cType="1" res="-2.8632742166519165e-01" rms="3.1012400984764099e-01" purity="1.1335166543722153e-01" nType="0">
            <Node pos="l" depth="3" NCoef="0" IVar="4" Cut="8.3333330154418945e+00" cType="1" res="-3.2913863658905029e-01" rms="2.1856458485126495e-01" purity="5.0639957189559937e-02" nType="0">
              <Node pos="l" depth="4" NCoef="0" IVar="-1" Cut="0.0000000000000000e+00" cType="1" res="-7.6854936778545380e-02" rms="1.2008218467235565e-01" purity="1.4619883149862289e-02" nType="-99"/>
              <Node pos="r" depth="4" NCoef="0" IVar="-1" Cut="0.0000000000000000e+00" cType="1" res="-6.5620027482509613e-02" rms="2.5944545865058899e-01" purity="7.2776280343532562e-02" nType="-99"/>
            </Node>
            <Node pos="r" depth="3" NCoef="0" IVar="5" Cut="9.5238097012042999e-02" cType="1" res="-2.3420566320419312e-01" rms="3.8750827312469482e-01" purity="1.8970189988613129e-01" nType="0">
              <Node pos="l" depth="4" NCoef="0" IVar="-1" Cut="0.0000000000000000e+00" cType="1" res="-5.5927053093910217e-02" rms="3.4786167740821838e-01" purity="1.4084507524967194e-01" nType="-99"/>
              <Node pos="r" depth="4" NCoef="0" IVar="-1" Cut="0.0000000000000000e+00" cType="1" res="-2.2431846708059311e-02" rms="4.7750779986381531e-01" purity="3.5294118523597717e-01" nType="-99"/>
            </Node>
          </Node>
          <Node pos="r" depth="2" NCoef="0" IVar="4" Cut="9.7142858505249023e+00" cType="1" res="-9.3852385878562927e-02" rms="4.7941043972969055e-01" purity="3.7836560606956482e-01" nType="0">
            <Node pos="l" depth="3" NCoef="0" IVar="-1" Cut="0.0000000000000000e+00" cType="1" res="-4.7843132168054581e-02" rms="4.1898357868194580e-01" purity="2.3497267067432404e-01" nType="-99"/>
            <Node pos="r" depth="3" NCoef="0" IVar="3" Cut="1.0000000000000000e+01" cType="1" res="-4.3311104178428650e-02" rms="4.8886772990226746e-01" purity="4.2857143282890320e-01" nType="0">
              <Node pos="l" depth="4" NCoef="0" IVar="-1" Cut="0.0000000000000000e+00" cType="1" res="-2.9063625261187553e-02" rms="4.5688417553901672e-01" purity="3.0526316165924072e-01" nType="-99"/>
              <Node pos="r" depth="4" NCoef="0" IVar="-1" Cut="0.0000000000000000e+00" cType="1" res="5.8575053117237985e-05" rms="4.9584379792213440e-01" purity="4.8215919733047485e-01" nType="-99"/>
            </Node>
          </Node>
        </Node>
        <Node pos="r" depth="1" NCoef="0" IVar="3" Cut="6.7142858505249023e+00" cType="1" res="1.6931098699569702e-01" rms="4.2187401652336121e-01" purity="7.2643059492111206e-01" nType="0">
          <Node pos="l" depth="2" NCoef="0" IVar="-1" Cut="0.0000000000000000e+00" cType="1" res="-4.7888401895761490e-02" rms="3.9347103238105774e-01" purity="2.0300751924514771e-01" nType="-99"/>
          <Node pos="r" depth="2" NCoef="0" IVar="5" Cut="5.7142858505249023e+00" cType="1" res="1.9488984346389771e-01" rms="4.1045174002647400e-01" purity="7.5961232185363770e-01" nType="0">
            <Node pos="l" depth="3" NCoef="0" IVar="4" Cut="8.2857141494750977e+00" cType="1" res="4.6027850359678268e-02" rms="4.7536084055900574e-01" purity="5.4458361864089966e-01" nType="0">
              <Node pos="l" depth="4" NCoef="0" IVar="-1" Cut="0.0000000000000000e+00" cType="1" res="-5.7560320943593979e-02" rms="3.3700057864189148e-01" purity="1.4790996909141541e-01" nType="-99"/>
              <Node pos="r" depth="4" NCoef="0" IVar="-1" Cut="0.0000000000000000e+00" cType="1" res="2.8631612658500671e-02" rms="4.6831569075584412e-01" purity="6.6252392530441284e-01" nType="-99"/>
            </Node>
            <Node pos="r" depth="3" NCoef="0" IVar="7" Cut="4.7619048506021500e-02" cType="1" res="2.3580652475357056e-01" rms="3.8065946102142334e-01" purity="8.1871581077575684e-01" nType="0">
              <Node pos="l" depth="4" NCoef="0" IVar="-1" Cut="0.0000000000000000e+00" cType="1" res="3.0260905623435974e-02" rms="4.4287312030792236e-01" purity="7.1389144659042358e-01" nType="-99"/>
              <Node pos="r" depth="4" NCoef="0" IVar="-1" Cut="0.0000000000000000e+00" cType="1" res="5.3818657994270325e-02" rms="3.5730412602424622e-01" purity="8.4831166267395020e-01" nType="-99"/>
            </Node>
          </Node>
        </Node>
      </Node>
    </BinaryTree>
    <BinaryTree type="DecisionTree" boostWeight="1.0000000000000000e+00" itree="4">
      <Node pos="s" depth="0" NCoef="0" IVar="5" Cut="5.5238094329833984e+00" cType="1" res="-9.8152970895171165e-04" rms="4.4296506047248840e-01" purity="4.9995753169059753e-01" nType="0">
        <Node pos="l" depth="1" NCoef="0" IVar="6" Cut="3.1924487304687500e+02" cType="1" res="-1.4512877166271210e-01" rms="4.2040163278579712e-01" purity="2.8146696090698242e-01" nType="0">
          <Node pos="l" depth="2" NCoef="0" IVar="6" Cut="7.9757133483886719e+01" cType="1" res="-1.8120698630809784e-01" rms="4.0100401639938354e-01" purity="2.3841603100299835e-01" nType="0">
            <Node pos="l" depth="3" NCoef="0" IVar="7" Cut="4.7619048506021500e-02" cType="1" res="-2.3840971291065216e-01" rms="3.5736259818077087e-01" purity="1.7239950597286224e-01" nType="0">
              <Node pos="l" depth="4" NCoef="0" IVar="-1" Cut="0.0000000000000000e+00" cType="1" res="-6.3906334340572357e-02" rms="2.5957268476486206e-01" purity="7.6592937111854553e-02" nType="-99"/>
              <Node pos="r" depth="4" NCoef="0" IVar="-1" Cut="0.0000000000000000e+00" cType="1" res="-2.8116870671510696e-02" rms="4.6231874823570251e-01" purity="3.3388981223106384e-01" nType="-99"/>
            </Node>
            <Node pos="r" depth="3" NCoef="0" IVar="7" Cut="4.7619048506021500e-02" cType="1" res="3.7888526916503906e-02" rms="4.7647893428802490e-01" purity="4.9126982688903809e-01" nType="0">
              <Node pos="l" depth="4" NCoef="0" IVar="-1" Cut="0.0000000000000000e+00" cType="1" res="-1.6785966232419014e-02" rms="4.5362719893455505e-01" purity="3.1785714626312256e-01" nType="-99"/>
              <Node pos="r" depth="4" NCoef="0" IVar="-1" Cut="0.0000000000000000e+00" cType="1" res="2.6601530611515045e-02" rms="4.7345015406608582e-01" purity="6.2999999523162842e-01" nType="-99"/>
            </Node>
          </Node>
          <Node pos="r" depth="2" NCoef="0" IVar="-1" Cut="0.0000000000000000e+00" cType="1" res="5.3201600909233093e-02" rms="4.1988828778266907e-01" purity="7.6666665077209473e-01" nType="-99"/>
        </Node>
        <Node pos="r" depth="1" NCoef="0" IVar="3" Cut="7.9523811340332031e+00" cType="1" res="1.8444257974624634e-01" rms="4.0020793676376343e-01" purity="7.8101336956024170e-01" nType="0">
          <Node pos="l" depth="2" NCoef="0" IVar="-1" Cut="0.0000000000000000e+00" cType="1" res="-1.8881980329751968e-02" rms="4.7307154536247253e-01" purity="3.4726688265800476e-01" nType="-99"/>
          <Node pos="r" depth="2" NCoef="0" IVar="7" Cut="4.7619048506021500e-02" cType="1" res="2.0226809382438660e-01" rms="3.8834902644157410e-01" purity="8.0888432264328003e-01" nType="0">
            <Node pos="l" depth="3" NCoef="0" IVar="6" Cut="2.1361886596679688e+02" cType="1" res="1.0821948200464249e-01" rms="4.5656141638755798e-01" purity="6.8772560358047485e-01" nType="0">
              <Node pos="l" depth="4" NCoef="0" IVar="-1" Cut="0.0000000000000000e+00" cType="1" res="3.7513435818254948e-03" rms="4.8645782470703125e-01" purity="5.9066665172576904e-01" nType="-99"/>
              <Node pos="r" depth="4" NCoef="0" IVar="-1" Cut="0.0000000000000000e+00" cType="1" res="6.1553195118904114e-02" rms="3.1143552064895630e-01" purity="8.9106142520904541e-01" nType="-99"/>
            </Node>
            <Node pos="r" depth="3" NCoef="0" IVar="1" Cut="8.5847383737564087e-01" cType="1" res="2.3019033670425415e-01" rms="3.6096870899200439e-01" purity="8.4485530853271484e-01" nType="0">
              <Node pos="l" depth="4" NCoef="0" IVar="-1" Cut="0.0000000000000000e+00" cType="1" res="5.2048183977603912e-02" rms="3.4459796547889709e-01" purity="8.6115598678588867e-01" nType="-99"/>
              <Node pos="r" depth="4" NCoef="0" IVar="-1" Cut="0.0000000000000000e+00" cType="1" res="3.1942915171384811e-02" rms="4.2324891686439514e-01" purity="7.6535433530807495e-01" nType="-99"/>
            </Node>
          </Node>
        </Node>
      </Node>
    </BinaryTree>
    <BinaryTree type="DecisionTree" boostWeight="1.0000000000000000e+00" itree="5">
      <Node pos="s" depth="0" NCoef="0" IVar="5" Cut="2.7142856121063232e+00" cType="1" res="-4.6541267074644566e-03" rms="4.3143996596336365e-01" purity="4.9391931295394897e-01" nType="0">
        <Node pos="l" depth="1" NCoef="0" IVar="4" Cut="9.3333330154418945e+00" cType="1" res="-1.6894307732582092e-01" rms="3.9080184698104858e-01" purity="2.2171945869922638e-01" nType="0">
          <Node pos="l" depth="2" NCoef="0" IVar="7" Cut="4.7619048506021500e-02" cType="1" res="-2.5262448191642761e-01" rms="2.7876341342926025e-01" purity="9.8403111100196838e-02" nType="0">
            <Node pos="l" depth="3" NCoef="0" IVar="3" Cut="1.1666666984558105e+01" cType="1" res="-2.8171199560165405e-01" rms="1.9257137179374695e-01" purity="4.0022868663072586e-02" nType="0">
              <Node pos="l" depth="4" NCoef="0" IVar="-1" Cut="0.0000000000000000e+00" cType="1" res="-7.0409193634986877e-02" rms="1.0865893214941025e-01" purity="1.1940298601984978e-02" nType="-99"/>
              <Node pos="r" depth="4" NCoef="0" IVar="-1" Cut="0.0000000000000000e+00" cType="1" res="-6.1017632484436035e-02" rms="2.2860479354858398e-01" purity="5.7460609823465347e-02" nType="-99"/>
            </Node>
            <Node pos="r" depth="3" NCoef="0" IVar="-1" Cut="0.0000000000000000e+00" cType="1" res="-3.3152017742395401e-02" rms="4.3837878108024597e-01" purity="2.7816900610923767e-01" nType="-99"/>
          </Node>
          <Node pos="r" depth="2" NCoef="0" IVar="7" Cut="4.7619048506021500e-02" cType="1" res="-1.0403186082839966e-01" rms="4.4863244891166687e-01" purity="3.1737530231475830e-01" nType="0">
            <Node pos="l" depth="3" NCoef="0" IVar="5" Cut="9.5238097012042999e-02" cType="1" res="-1.5913119912147522e-01" rms="4.0431800484657288e-01" purity="2.1877110004425049e-01" nType="0">
              <Node pos="l" depth="4" NCoef="0" IVar="-1" Cut="0.0000000000000000e+00" cType="1" res="-3.8644503802061081e-02" rms="3.8219004869461060e-01" purity="1.8308630585670471e-01" nType="-99"/>
              <Node pos="r" depth="4" NCoef="0" IVar="-1" Cut="0.0000000000000000e+00" cType="1" res="-1.9080646336078644e-02" rms="4.6657431125640869e-01" purity="3.4131735563278198e-01" nType="-99"/>
            </Node>
            <Node pos="r" depth="3" NCoef="0" IVar="3" Cut="9.2857141494750977e+00" cType="1" res="-4.9847181886434555e-02" rms="4.8220339417457581e-01" purity="4.1434264183044434e-01" nType="0">
              <Node pos="l" depth="4" NCoef="0" IVar="-1" Cut="0.0000000000000000e+00" cType="1" res="-2.5241978466510773e-02" rms="4.5538687705993652e-01" purity="3.0387932062149048e-01" nType="-99"/>
              <Node pos="r" depth="4" NCoef="0" IVar="-1" Cut="0.0000000000000000e+00" cType="1" res="-3.4465433564037085e-03" rms="4.9014934897422791e-01" purity="4.6353167295455933e-01" nType="-99"/>
            </Node>
          </Node>
        </Node>
        <Node pos="r" depth="1" NCoef="0" IVar="3" Cut="8.1428575515747070e+00" cType="1" res="1.2699545919895172e-01" rms="4.1708055138587952e-01" purity="7.1204107999801636e-01" nType="0">
          <Node pos="l" depth="2" NCoef="0" IVar="-1" Cut="0.0000000000000000e+00" cType="1" res="-3.7951640784740448e-02" rms="4.1037911176681519e-01" purity="2.4333925545215607e-01" nType="-99"/>
          <Node pos="r" depth="2" NCoef="0" IVar="4" Cut="6.1904764175415039e+00" cType="1" res="1.5574589371681213e-01" rms="4.0589874982833862e-01" purity="7.5561428070068359e-01" nType="0">
            <Node pos="l" depth="3" NCoef="0" IVar="-1" Cut="0.0000000000000000e+00" cType="1" res="-9.4075445085763931e-03" rms="4.4982004165649414e-01" purity="5.0090414285659790e-01" nType="-99"/>
            <Node pos="r" depth="3" NCoef="0" IVar="4" Cut="1.0238095283508301e+01" cType="1" res="1.7586645483970642e-01" rms="3.9565575122833252e-01" purity="7.8121024370193481e-01" nType="0">
              <Node pos="l" depth="4" NCoef="0" IVar="-1" Cut="0.0000000000000000e+00" cType="1" res="4.1852977126836777e-02" rms="3.8186058402061462e-01" purity="8.0253320932388306e-01" nType="-99"/>
              <Node pos="r" depth="4" NCoef="0" IVar="-1" Cut="0.0000000000000000e+00" cType="1" res="6.9486577995121479e-03" rms="4.5653367042541504e-01" purity="6.3173216581344604e-01" nType="-99"/>
            </Node>
          </Node>
        </Node>
      </Node>
    </BinaryTree>
    <BinaryTree type="DecisionTree" boostWeight="1.0000000000000000e+00" itree="6">
      <Node pos="s" depth="0" NCoef="0" IVar="5" Cut="2.7619047164916992e+00" cType="1" res="4.8347441479563713e-03" rms="4.2230311036109924e-01" purity="5.0492298603057861e-01" nType="0">
        <Node pos="l" depth="1" NCoef="0" IVar="7" Cut="4.7619048506021500e-02" cType="1" res="-1.5308195352554321e-01" rms="3.8734892010688782e-01" purity="2.2114101052284241e-01" nType="0">
          <Node pos="l" depth="2" NCoef="0" IVar="4" Cut="9.3333330154418945e+00" cType="1" res="-2.1288795769214630e-01" rms="3.0520951747894287e-01" purity="1.1379844695329666e-01" nType="0">
            <Node pos="l" depth="3" NCoef="0" IVar="3" Cut="1.0428571701049805e+01" cType="1" res="-2.4889838695526123e-01" rms="2.0506802201271057e-01" purity="4.5560747385025024e-02" nType="0">
              <Node pos="l" depth="4" NCoef="0" IVar="-1" Cut="0.0000000000000000e+00" cType="1" res="-6.7057311534881592e-02" rms="1.0922279953956604e-01" purity="1.2173913419246674e-02" nType="-99"/>
              <Node pos="r" depth="4" NCoef="0" IVar="-1" Cut="0.0000000000000000e+00" cType="1" res="-5.6434854865074158e-02" rms="2.3836870491504669e-01" purity="6.2445029616355896e-02" nType="-99"/>
            </Node>
            <Node pos="r" depth="3" NCoef="0" IVar="2" Cut="1.4345620870590210e+00" cType="1" res="-1.7214120924472809e-01" rms="3.8450774550437927e-01" purity="1.9101123511791229e-01" nType="0">
              <Node pos="l" depth="4" NCoef="0" IVar="-1" Cut="0.0000000000000000e+00" cType="1" res="-3.3787008374929428e-02" rms="3.9624008536338806e-01" purity="2.0715473592281342e-01" nType="-99"/>
              <Node pos="r" depth="4" NCoef="0" IVar="-1" Cut="0.0000000000000000e+00" cType="1" res="-5.1592174917459488e-02" rms="3.2704296708106995e-01" purity="1.2861736118793488e-01" nType="-99"/>
            </Node>
          </Node>
          <Node pos="r" depth="2" NCoef="0" IVar="4" Cut="9.3333330154418945e+00" cType="1" res="-5.7410150766372681e-02" rms="4.7556865215301514e-01" purity="3.9285713434219360e-01" nType="0">
            <Node pos="l" depth="3" NCoef="0" IVar="-1" Cut="0.0000000000000000e+00" cType="1" res="-3.4617483615875244e-02" rms="4.2855110764503479e-01" purity="2.5531914830207825e-01" nType="-99"/>
            <Node pos="r" depth="3" NCoef="0" IVar="3" Cut="1.1619047164916992e+01" cType="1" res="-1.4175807125866413e-02" rms="4.8579427599906921e-01" purity="4.4628098607063293e-01" nType="0">
              <Node pos="l" depth="4" NCoef="0" IVar="-1" Cut="0.0000000000000000e+00" cType="1" res="-1.7254913225769997e-02" rms="4.7163593769073486e-01" purity="3.5714286565780640e-01" nType="-99"/>
              <Node pos="r" depth="4" NCoef="0" IVar="-1" Cut="0.0000000000000000e+00" cType="1" res="1.5115339308977127e-02" rms="4.8877760767936707e-01" purity="5.5937498807907104e-01" nType="-99"/>
            </Node>
          </Node>
        </Node>
        <Node pos="r" depth="1" NCoef="0" IVar="3" Cut="6.7142858505249023e+00" cType="1" res="1.2944200634956360e-01" rms="4.0677592158317566e-01" purity="7.2884672880172729e-01" nType="0">
          <Node pos="l" depth="2" NCoef="0" IVar="-1" Cut="0.0000000000000000e+00" cType="1" res="-3.7105433642864227e-02" rms="3.9729690551757812e-01" purity="2.1126760542392731e-01" nType="-99"/>
          <Node pos="r" depth="2" NCoef="0" IVar="5" Cut="1.0857142448425293e+01" cType="1" res="1.5026398003101349e-01" rms="3.9903533458709717e-01" purity="7.6431787014007568e-01" nType="0">
            <Node pos="l" depth="3" NCoef="0" IVar="4" Cut="8.2857141494750977e+00" cType="1" res="8.7779536843299866e-02" rms="4.3636545538902283e-01" purity="6.7125588655471802e-01" nType="0">
              <Node pos="l" depth="4" NCoef="0" IVar="-1" Cut="0.0000000000000000e+00" cType="1" res="-3.2103806734085083e-02" rms="4.1696515679359436e-01" purity="3.4488448500633240e-01" nType="-99"/>
              <Node pos="r" depth="4" NCoef="0" IVar="-1" Cut="0.0000000000000000e+00" cType="1" res="3.1553141772747040e-02" rms="4.2024379968643188e-01" purity="7.5463742017745972e-01" nType="-99"/>
            </Node>
            <Node pos="r" depth="3" NCoef="0" IVar="0" Cut="1.3165444374084473e+01" cType="1" res="2.0773115754127502e-01" rms="3.5164529085159302e-01" purity="8.4990733861923218e-01" nType="0">
              <Node pos="l" depth="4" NCoef="0" IVar="-1" Cut="0.0000000000000000e+00" cType="1" res="4.7079309821128845e-02" rms="3.4447574615478516e-01" purity="8.5649597644805908e-01" nType="-99"/>
              <Node pos="r" depth="4" NCoef="0" IVar="-1" Cut="0.0000000000000000e+00" cType="1" res="3.2383918762207031e-02" rms="3.9809495210647583e-01" purity="7.9836511611938477e-01" nType="-99"/>
            </Node>
          </Node>
        </Node>
      </Node>
    </BinaryTree>
    <BinaryTree type="DecisionTree" boostWeight="1.0000000000000000e+00" itree="7">
      <Node pos="s" depth="0" NCoef="0" IVar="5" Cut="2.7619047164916992e+00" cType="1" res="-4.6434719115495682e-03" rms="4.1689980030059814e-01" purity="4.9644440412521362e-01" nType="0">
        <Node pos="l" depth="1" NCoef="0" IVar="4" Cut="9.3333330154418945e+00" cType="1" res="-1.4277508854866028e-01" rms="3.8351395726203918e-01" purity="2.1741604804992676e-01" nType="0">
          <Node pos="l" depth="2" NCoef="0" IVar="4" Cut="8.3333330154418945e+00" cType="1" res="-2.0933564007282257e-01" rms="2.7359086275100708e-01" purity="9.5697984099388123e-02" nType="0">
            <Node pos="l" depth="3" NCoef="0" IVar="6" Cut="2.3599922180175781e+01" cType="1" res="-2.6442730426788330e-01" rms="1.3228364288806915e-01" purity="1.7262639477849007e-02" nType="0">
              <Node pos="l" depth="4" NCoef="0" IVar="-1" Cut="0.0000000000000000e+00" cType="1" res="-7.0164263248443604e-02" rms="6.5955936908721924e-02" purity="2.2779044229537249e-03" nType="-99"/>
              <Node pos="r" depth="4" NCoef="0" IVar="-1" Cut="0.0000000000000000e+00" cType="1" res="-6.1287008225917816e-02" rms="1.7959977686405182e-01" purity="3.4946236759424210e-02" nType="-99"/>
            </Node>
            <Node pos="r" depth="3" NCoef="0" IVar="7" Cut="4.7619048506021500e-02" cType="1" res="-1.7887938022613525e-01" rms="3.2241722941398621e-01" purity="1.3905930519104004e-01" nType="0">
              <Node pos="l" depth="4" NCoef="0" IVar="-1" Cut="0.0000000000000000e+00" cType="1" res="-5.5237408727407455e-02" rms="2.2509515285491943e-01" purity="5.5281341075897217e-02" nType="-99"/>
              <Node pos="r" depth="4" NCoef="0" IVar="-1" Cut="0.0000000000000000e+00" cType="1" res="-1.7779998481273651e-02" rms="4.5861881971359253e-01" purity="3.2599118351936340e-01" nType="-99"/>
            </Node>
          </Node>
          <Node pos="r" depth="2" NCoef="0" IVar="7" Cut="4.7619048506021500e-02" cType="1" res="-9.2115238308906555e-02" rms="4.4285470247268677e-01" purity="3.1005680561065674e-01" nType="0">
            <Node pos="l" depth="3" NCoef="0" IVar="1" Cut="1.2370665073394775e+00" cType="1" res="-1.3868790864944458e-01" rms="3.9634153246879578e-01" purity="2.0604026317596436e-01" nType="0">
              <Node pos="l" depth="4" NCoef="0" IVar="-1" Cut="0.0000000000000000e+00" cType="1" res="-2.6554275304079056e-02" rms="4.1028645634651184e-01" purity="2.2603341937065125e-01" nType="-99"/>
              <Node pos="r" depth="4" NCoef="0" IVar="-1" Cut="0.0000000000000000e+00" cType="1" res="-4.4895555824041367e-02" rms="3.4019422531127930e-01" purity="1.4164306223392487e-01" nType="-99"/>
            </Node>
            <Node pos="r" depth="3" NCoef="0" IVar="3" Cut="1.0571428298950195e+01" cType="1" res="-4.5945387333631516e-02" rms="4.8014000058174133e-01" purity="4.1317364573478699e-01" nType="0">
              <Node pos="l" depth="4" NCoef="0" IVar="-1" Cut="0.0000000000000000e+00" cType="1" res="-2.4204459041357040e-02" rms="4.5441031455993652e-01" purity="3.0674847960472107e-01" nType="-99"/>
              <Node pos="r" depth="4" NCoef="0" IVar="-1" Cut="0.0000000000000000e+00" cType="1" res="1.8139389576390386e-03" rms="4.9192628264427185e-01" purity="4.9471211433410645e-01" nType="-99"/>
            </Node>
          </Node>
        </Node>
        <Node pos="r" depth="1" NCoef="0" IVar="3" Cut="6.8571429252624512e+00" cType="1" res="1.0431967675685883e-01" rms="4.0983027219772339e-01" purity="7.1655195951461792e-01" nType="0">
          <Node pos="l" depth="2" NCoef="0" IVar="-1" Cut="0.0000000000000000e+00" cType="1" res="-3.6866955459117889e-02" rms="3.9124152064323425e-01" purity="1.9956140220165253e-01" nType="-99"/>
          <Node pos="r" depth="2" NCoef="0" IVar="7" Cut="4.7619048506021500e-02" cType="1" res="1.2444829195737839e-01" rms="4.0387430787086487e-01" purity="7.5441694259643555e-01" nType="0">
            <Node pos="l" depth="3" NCoef="0" IVar="6" Cut="2.5083134460449219e+02" cType="1" res="3.7973888218402863e-02" rms="4.3972244858741760e-01" purity="5.9821426868438721e-01" nType="0">
              <Node pos="l" depth="4" NCoef="0" IVar="-1" Cut="0.0000000000000000e+00" cType="1" res="-9.7798081114888191e-03" rms="4.5519861578941345e-01" purity="4.8740226030349731e-01" nType="-99"/>
              <Node pos="r" depth="4" NCoef="0" IVar="-1" Cut="0.0000000000000000e+00" cType="1" res="5.9169732034206390e-02" rms="2.8568121790885925e-01" purity="9.0407675504684448e-01" nType="-99"/>
            </Node>
            <Node pos="r" depth="3" NCoef="0" IVar="5" Cut="1.8714284896850586e+01" cType="1" res="1.5355774760246277e-01" rms="3.8674265146255493e-01" purity="8.0699872970581055e-01" nType="0">
              <Node pos="l" depth="4" NCoef="0" IVar="-1" Cut="0.0000000000000000e+00" cType="1" res="2.9894424602389336e-02" rms="4.0346732735633850e-01" purity="7.8330022096633911e-01" nType="-99"/>
              <Node pos="r" depth="4" NCoef="0" IVar="-1" Cut="0.0000000000000000e+00" cType="1" res="4.7800302505493164e-02" rms="3.2296603918075562e-01" purity="8.8038700819015503e-01" nType="-99"/>
            </Node>
          </Node>
        </Node>
      </Node>
    </BinaryTree>
    <BinaryTree type="DecisionTree" boostWeight="1.0000000000000000e+00" itree="8">
      <Node pos="s" depth="0" NCoef="0" IVar="5" Cut="5.7142858505249023e+00" cType="1" res="-1.3348259963095188e-03" rms="4.1103407740592957e-01" purity="4.9929067492485046e-01" nType="0">
        <Node pos="l" depth="1" NCoef="0" IVar="6" Cut="3.1925231933593750e+02" cType="1" res="-9.7614318132400513e-02" rms="3.9861091971397400e-01" purity="2.8563016653060913e-01" nType="0">
          <Node pos="l" depth="2" NCoef="0" IVar="6" Cut="6.4812080383300781e+01" cType="1" res="-1.2725023925304413e-01" rms="3.8354873657226562e-01" purity="2.4183215200901031e-01" nType="0">
            <Node pos="l" depth="3" NCoef="0" IVar="7" Cut="4.7619048506021500e-02" cType="1" res="-1.7973990738391876e-01" rms="3.3851748704910278e-01" purity="1.6535948216915131e-01" nType="0">
              <Node pos="l" depth="4" NCoef="0" IVar="-1" Cut="0.0000000000000000e+00" cType="1" res="-5.5375419557094574e-02" rms="2.3690593242645264e-01" purity="6.4172960817813873e-02" nType="-99"/>
              <Node pos="r" depth="4" NCoef="0" IVar="-1" Cut="0.0000000000000000e+00" cType="1" res="-2.1395675837993622e-02" rms="4.5509138703346252e-01" purity="3.4128877520561218e-01" nType="-99"/>
            </Node>
            <Node pos="r" depth="3" NCoef="0" IVar="3" Cut="9.8571424484252930e+00" cType="1" res="1.8413342535495758e-02" rms="4.5659551024436951e-01" purity="4.5405077934265137e-01" nType="0">
              <Node pos="l" depth="4" NCoef="0" IVar="-1" Cut="0.0000000000000000e+00" cType="1" res="-2.4997502565383911e-02" rms="4.0415340662002563e-01" purity="2.5260415673255920e-01" nType="-99"/>
              <Node pos="r" depth="4" NCoef="0" IVar="-1" Cut="0.0000000000000000e+00" cType="1" res="1.2345749884843826e-02" rms="4.6418929100036621e-01" purity="5.1496064662933350e-01" nType="-99"/>
            </Node>
          </Node>
          <Node pos="r" depth="2" NCoef="0" IVar="-1" Cut="0.0000000000000000e+00" cType="1" res="5.0438974052667618e-02" rms="4.1120937466621399e-01" purity="7.8467154502868652e-01" nType="-99"/>
        </Node>
        <Node pos="r" depth="1" NCoef="0" IVar="4" Cut="6.1904764175415039e+00" cType="1" res="1.2463904172182083e-01" rms="3.9257022738456726e-01" purity="7.7884799242019653e-01" nType="0">
          <Node pos="l" depth="2" NCoef="0" IVar="-1" Cut="0.0000000000000000e+00" cType="1" res="-4.7418796457350254e-03" rms="4.5710068941116333e-01" purity="5.6363636255264282e-01" nType="-99"/>
          <Node pos="r" depth="2" NCoef="0" IVar="3" Cut="1.1333333015441895e+01" cType="1" res="1.4203050732612610e-01" rms="3.8047191500663757e-01" purity="8.0435252189636230e-01" nType="0">
            <Node pos="l" depth="3" NCoef="0" IVar="-1" Cut="0.0000000000000000e+00" cType="1" res="1.0337369516491890e-02" rms="4.5280462503433228e-01" purity="5.9762310981750488e-01" nType="-99"/>
            <Node pos="r" depth="3" NCoef="0" IVar="5" Cut="1.3714285850524902e+01" cType="1" res="1.5580114722251892e-01" rms="3.6674702167510986e-01" purity="8.3440274000167847e-01" nType="0">
              <Node pos="l" depth="4" NCoef="0" IVar="-1" Cut="0.0000000000000000e+00" cType="1" res="2.9970180243253708e-02" rms="3.9007353782653809e-01" purity="8.0377167463302612e-01" nType="-99"/>
              <Node pos="r" depth="4" NCoef="0" IVar="-1" Cut="0.0000000000000000e+00" cType="1" res="4.1526142507791519e-02" rms="3.4184259176254272e-01" purity="8.6315786838531494e-01" nType="-99"/>
            </Node>
          </Node>
        </Node>
      </Node>
    </BinaryTree>
    <BinaryTree type="DecisionTree" boostWeight="1.0000000000000000e+00" itree="9">
      <Node pos="s" depth="0" NCoef="0" IVar="5" Cut="2.5238094329833984e+00" cType="1" res="4.0904115885496140e-03" rms="4.0442243218421936e-01" purity="5.0302278995513916e-01" nType="0">
        <Node pos="l" depth="1" NCoef="0" IVar="7" Cut="4.7619048506021500e-02" cType="1" res="-1.1021165549755096e-01" rms="3.8126659393310547e-01" purity="2.2456598281860352e-01" nType="0">
          <Node pos="l" depth="2" NCoef="0" IVar="4" Cut="9.3333330154418945e+00" cType="1" res="-1.5611752867698669e-01" rms="3.0178359150886536e-01" purity="1.1574779450893402e-01" nType="0">
            <Node pos="l" depth="3" NCoef="0" IVar="4" Cut="8.3333330154418945e+00" cType="1" res="-1.9052922725677490e-01" rms="1.9099387526512146e-01" purity="3.9746545255184174e-02" nType="0">
              <Node pos="l" depth="4" NCoef="0" IVar="-1" Cut="0.0000000000000000e+00" cType="1" res="-6.0100235044956207e-02" rms="1.1535635590553284e-01" purity="1.3657055795192719e-02" nType="-99"/>
              <Node pos="r" depth="4" NCoef="0" IVar="-1" Cut="0.0000000000000000e+00" cType="1" res="-5.0222594290971756e-02" rms="2.2457635402679443e-01" purity="5.5710308253765106e-02" nType="-99"/>
            </Node>
            <Node pos="r" depth="3" NCoef="0" IVar="3" Cut="9.1904764175415039e+00" cType="1" res="-1.1750169098377228e-01" rms="3.8667547702789307e-01" purity="2.0103426277637482e-01" nType="0">
              <Node pos="l" depth="4" NCoef="0" IVar="-1" Cut="0.0000000000000000e+00" cType="1" res="-4.2675457894802094e-02" rms="3.2409855723381042e-01" purity="1.2037037312984467e-01" nType="-99"/>
              <Node pos="r" depth="4" NCoef="0" IVar="-1" Cut="0.0000000000000000e+00" cType="1" res="-2.3430593311786652e-02" rms="4.0008726716041565e-01" purity="2.2240392863750458e-01" nType="-99"/>
            </Node>
          </Node>
          <Node pos="r" depth="2" NCoef="0" IVar="3" Cut="9.8571424484252930e+00" cType="1" res="-3.7545792758464813e-02" rms="4.7189703583717346e-01" purity="3.9681774377822876e-01" nType="0">
            <Node pos="l" depth="3" NCoef="0" IVar="-1" Cut="0.0000000000000000e+00" cType="1" res="-2.5387864559888840e-02" rms="4.3125775456428528e-01" purity="2.6145038008689880e-01" nType="-99"/>
            <Node pos="r" depth="3" NCoef="0" IVar="2" Cut="8.6385852098464966e-01" cType="1" res="-9.9130505695939064e-03" rms="4.8173931241035461e-01" purity="4.4258064031600952e-01" nType="0">
              <Node pos="l" depth="4" NCoef="0" IVar="-1" Cut="0.0000000000000000e+00" cType="1" res="1.4160355553030968e-02" rms="4.8468014597892761e-01" purity="5.2323579788208008e-01" nType="-99"/>
              <Node pos="r" depth="4" NCoef="0" IVar="-1" Cut="0.0000000000000000e+00" cType="1" res="-1.1745480820536613e-02" rms="4.7364723682403564e-01" purity="3.9422085881233215e-01" nType="-99"/>
            </Node>
          </Node>
        </Node>
        <Node pos="r" depth="1" NCoef="0" IVar="3" Cut="8.1428575515747070e+00" cType="1" res="9.5236018300056458e-02" rms="3.9917334914207458e-01" purity="7.2506695985794067e-01" nType="0">
          <Node pos="l" depth="2" NCoef="0" IVar="7" Cut="4.7619048506021500e-02" cType="1" res="-1.2896001338958740e-01" rms="4.0798187255859375e-01" purity="2.5990492105484009e-01" nType="0">
            <Node pos="l" depth="3" NCoef="0" IVar="-1" Cut="0.0000000000000000e+00" cType="1" res="-6.0828115791082382e-02" rms="2.4626360833644867e-01" purity="7.0769228041172028e-02" nType="-99"/>
            <Node pos="r" depth="3" NCoef="0" IVar="-1" Cut="0.0000000000000000e+00" cType="1" res="3.6297636106610298e-03" rms="4.8706412315368652e-01" purity="4.6078431606292725e-01" nType="-99"/>
          </Node>
          <Node pos="r" depth="2" NCoef="0" IVar="7" Cut="4.7619048506021500e-02" cType="1" res="1.1847697198390961e-01" rms="3.9096248149871826e-01" purity="7.7328735589981079e-01" nType="0">
            <Node pos="l" depth="3" NCoef="0" IVar="4" Cut="8.2857141494750977e+00" cType="1" res="5.1388029009103775e-02" rms="4.2890486121177673e-01" purity="6.2743866443634033e-01" nType="0">
              <Node pos="l" depth="4" NCoef="0" IVar="-1" Cut="0.0000000000000000e+00" cType="1" res="-1.4834742993116379e-02" rms="4.2787519097328186e-01" purity="4.3247863650321960e-01" nType="-99"/>
              <Node pos="r" depth="4" NCoef="0" IVar="-1" Cut="0.0000000000000000e+00" cType="1" res="2.6555363088846207e-02" rms="4.1392165422439575e-01" purity="7.4103587865829468e-01" nType="-99"/>
            </Node>
            <Node pos="r" depth="3" NCoef="0" IVar="2" Cut="1.3818002939224243e+00" cType="1" res="1.4217735826969147e-01" rms="3.7377876043319702e-01" purity="8.2481104135513306e-01" nType="0">
              <Node pos="l" depth="4" NCoef="0" IVar="-1" Cut="0.0000000000000000e+00" cType="1" res="3.5858403891324997e-02" rms="3.6364370584487915e-01" purity="8.3657175302505493e-01" nType="-99"/>
              <Node pos="r" depth="4" NCoef="0" IVar="-1" Cut="0.0000000000000000e+00" cType="1" res="1.9200306385755539e-02" rms="4.1633918881416321e-01" purity="7.6518219709396362e-01" nType="-99"/>
            </Node>
          </Node>
        </Node>
      </Node>
    </BinaryTree>
    <BinaryTree type="DecisionTree" boostWeight="1.0000000000000000e+00" itree="10">
      <Node pos="s" depth="0" NCoef="0" IVar="5" Cut="5.5238094329833984e+00" cType="1" res="-3.0753684695810080e-03" rms="4.0439122915267944e-01" purity="4.9658560752868652e-01" nType="0">
        <Node pos="l" depth="1" NCoef="0" IVar="4" Cut="9.3333330154418945e+00" cType="1" res="-8.1730477511882782e-02" rms="3.9560380578041077e-01" purity="2.8424456715583801e-01" nType="0">
          <Node pos="l" depth="2" NCoef="0" IVar="4" Cut="8.3333330154418945e+00" cType="1" res="-1.4862626791000366e-01" rms="3.0854308605194092e-01" purity="1.4757412672042847e-01" nType="0">
            <Node pos="l" depth="3" NCoef="0" IVar="6" Cut="3.4547096252441406e+01" cType="1" res="-2.0517134666442871e-01" rms="2.1398167312145233e-01" purity="5.9071730822324753e-02" nType="0">
              <Node pos="l" depth="4" NCoef="0" IVar="-1" Cut="0.0000000000000000e+00" cType="1" res="-6.3205532729625702e-02" rms="1.5049751102924347e-01" purity="2.2613065317273140e-02" nType="-99"/>
              <Node pos="r" depth="4" NCoef="0" IVar="-1" Cut="0.0000000000000000e+00" cType="1" res="-4.0501400828361511e-02" rms="2.9922997951507568e-01" purity="1.3367609679698944e-01" nType="-99"/>
            </Node>
            <Node pos="r" depth="3" NCoef="0" IVar="5" Cut="1.1904761791229248e+00" cType="1" res="-1.1104584485292435e-01" rms="3.5284611582756042e-01" purity="2.0639371871948242e-01" nType="0">
              <Node pos="l" depth="4" NCoef="0" IVar="-1" Cut="0.0000000000000000e+00" cType="1" res="-3.8204614073038101e-02" rms="3.0478104948997498e-01" purity="1.2224591523408890e-01" nType="-99"/>
              <Node pos="r" depth="4" NCoef="0" IVar="-1" Cut="0.0000000000000000e+00" cType="1" res="3.3814839553087950e-03" rms="4.7165226936340332e-01" purity="5.2127659320831299e-01" nType="-99"/>
            </Node>
          </Node>
          <Node pos="r" depth="2" NCoef="0" IVar="4" Cut="1.0666666984558105e+01" cType="1" res="-2.9971688985824585e-02" rms="4.4473913311958313e-01" purity="3.8998958468437195e-01" nType="0">
            <Node pos="l" depth="3" NCoef="0" IVar="5" Cut="1.1904761791229248e+00" cType="1" res="-9.0969745069742203e-03" rms="4.4845685362815857e-01" purity="4.1130885481834412e-01" nType="0">
              <Node pos="l" depth="4" NCoef="0" IVar="-1" Cut="0.0000000000000000e+00" cType="1" res="-1.2919968925416470e-02" rms="4.3789801001548767e-01" purity="3.0708348751068115e-01" nType="-99"/>
              <Node pos="r" depth="4" NCoef="0" IVar="-1" Cut="0.0000000000000000e+00" cType="1" res="2.5263782590627670e-02" rms="4.5037481188774109e-01" purity="6.8652039766311646e-01" nType="-99"/>
            </Node>
            <Node pos="r" depth="3" NCoef="0" IVar="-1" Cut="0.0000000000000000e+00" cType="1" res="-5.1254082471132278e-02" rms="3.4340116381645203e-01" purity="1.7897726595401764e-01" nType="-99"/>
          </Node>
        </Node>
        <Node pos="r" depth="1" NCoef="0" IVar="3" Cut="8.1428575515747070e+00" cType="1" res="9.9762715399265289e-02" rms="3.9250367879867554e-01" purity="7.7421212196350098e-01" nType="0">
          <Node pos="l" depth="2" NCoef="0" IVar="-1" Cut="0.0000000000000000e+00" cType="1" res="-1.0314927436411381e-02" rms="4.5494875311851501e-01" purity="3.6432161927223206e-01" nType="-99"/>
          <Node pos="r" depth="2" NCoef="0" IVar="5" Cut="1.8380952835083008e+01" cType="1" res="1.1203627288341522e-01" rms="3.8432675600051880e-01" purity="8.0815649032592773e-01" nType="0">
            <Node pos="l" depth="3" NCoef="0" IVar="4" Cut="7.2380952835083008e+00" cType="1" res="9.3659341335296631e-02" rms="3.9769154787063599e-01" purity="7.8783428668975830e-01" nType="0">
              <Node pos="l" depth="4" NCoef="0" IVar="-1" Cut="0.0000000000000000e+00" cType="1" res="6.8942094221711159e-03" rms="4.3869695067405701e-01" purity="6.8630337715148926e-01" nType="-99"/>
              <Node pos="r" depth="4" NCoef="0" IVar="-1" Cut="0.0000000000000000e+00" cType="1" res="2.6339216157793999e-02" rms="3.8518193364143372e-01" purity="8.1314241886138916e-01" nType="-99"/>
            </Node>
            <Node pos="r" depth="3" NCoef="0" IVar="2" Cut="7.1988803148269653e-01" cType="1" res="1.5660983324050903e-01" rms="3.4576115012168884e-01" purity="8.5744833946228027e-01" nType="0">
              <Node pos="l" depth="4" NCoef="0" IVar="-1" Cut="0.0000000000000000e+00" cType="1" res="5.0213113427162170e-02" rms="2.7730453014373779e-01" purity="9.1152817010879517e-01" nType="-99"/>
              <Node pos="r" depth="4" NCoef="0" IVar="-1" Cut="0.0000000000000000e+00" cType="1" res="3.3271100372076035e-02" rms="3.6571639776229858e-01" purity="8.3786410093307495e-01" nType="-99"/>
            </Node>
          </Node>
        </Node>
      </Node>
    </BinaryTree>
    <BinaryTree type="DecisionTree" boostWeight="1.0000000000000000e+00" itree="11">
      <Node pos="s" depth="0" NCoef="0" IVar="5" Cut="5.5238094329833984e+00" cType="1" res="-3.8818416651338339e-03" rms="3.9654612541198730e-01" purity="4.9692839384078979e-01" nType="0">
        <Node pos="l" depth="1" NCoef="0" IVar="4" Cut="8.2857141494750977e+00" cType="1" res="-7.8357517719268799e-02" rms="3.8839158415794373e-01" purity="2.7848291397094727e-01" nType="0">
          <Node pos="l" depth="2" NCoef="0" IVar="6" Cut="4.5533149719238281e+01" cType="1" res="-1.9772985577583313e-01" rms="1.8860766291618347e-01" purity="4.3514642864465714e-02" nType="0">
            <Node pos="l" depth="3" NCoef="0" IVar="5" Cut="2.1428570747375488e+00" cType="1" res="-2.0948888361454010e-01" rms="1.3816104829311371e-01" purity="2.0134227350354195e-02" nType="0">
              <Node pos="l" depth="4" NCoef="0" IVar="-1" Cut="0.0000000000000000e+00" cType="1" res="-6.0542147606611252e-02" rms="1.0222383588552475e-01" purity="8.6655113846063614e-03" nType="-99"/>
              <Node pos="r" depth="4" NCoef="0" IVar="-1" Cut="0.0000000000000000e+00" cType="1" res="-6.2597021460533142e-02" rms="1.8053621053695679e-01" purity="4.1009463369846344e-02" nType="-99"/>
            </Node>
            <Node pos="r" depth="3" NCoef="0" IVar="-1" Cut="0.0000000000000000e+00" cType="1" res="-4.3210521340370178e-02" rms="2.8792813420295715e-01" purity="1.1295680701732635e-01" nType="-99"/>
          </Node>
          <Node pos="r" depth="2" NCoef="0" IVar="5" Cut="2.3809523880481720e-01" cType="1" res="-5.2430592477321625e-02" rms="4.1487094759941101e-01" purity="3.2951653003692627e-01" nType="0">
            <Node pos="l" depth="3" NCoef="0" IVar="4" Cut="9.7142858505249023e+00" cType="1" res="-1.0570567846298218e-01" rms="3.7626340985298157e-01" purity="2.0453074574470520e-01" nType="0">
              <Node pos="l" depth="4" NCoef="0" IVar="-1" Cut="0.0000000000000000e+00" cType="1" res="-4.3602596968412399e-02" rms="2.6450806856155396e-01" purity="8.7753131985664368e-02" nType="-99"/>
              <Node pos="r" depth="4" NCoef="0" IVar="-1" Cut="0.0000000000000000e+00" cType="1" res="-1.8300678580999374e-02" rms="4.1925677657127380e-01" purity="2.6351681351661682e-01" nType="-99"/>
            </Node>
            <Node pos="r" depth="3" NCoef="0" IVar="6" Cut="3.1929434204101562e+02" cType="1" res="1.5819825232028961e-02" rms="4.5050325989723206e-01" purity="4.8963516950607300e-01" nType="0">
              <Node pos="l" depth="4" NCoef="0" IVar="-1" Cut="0.0000000000000000e+00" cType="1" res="-4.3183430097997189e-03" rms="4.5071259140968323e-01" purity="4.2949035763740540e-01" nType="-99"/>
              <Node pos="r" depth="4" NCoef="0" IVar="-1" Cut="0.0000000000000000e+00" cType="1" res="4.3655246496200562e-02" rms="4.0179723501205444e-01" purity="8.0051147937774658e-01" nType="-99"/>
            </Node>
          </Node>
        </Node>
        <Node pos="r" depth="1" NCoef="0" IVar="3" Cut="9.4285717010498047e+00" cType="1" res="9.2293165624141693e-02" rms="3.8613757491111755e-01" purity="7.7902042865753174e-01" nType="0">
          <Node pos="l" depth="2" NCoef="0" IVar="-1" Cut="0.0000000000000000e+00" cType="1" res="-1.3281400315463543e-02" rms="4.5595932006835938e-01" purity="3.9686098694801331e-01" nType="-99"/>
          <Node pos="r" depth="2" NCoef="0" IVar="2" Cut="1.3205971717834473e+00" cType="1" res="1.0677723586559296e-01" rms="3.7567341327667236e-01" purity="8.1497889757156372e-01" nType="0">
            <Node pos="l" depth="3" NCoef="0" IVar="5" Cut="1.0952381134033203e+01" cType="1" res="1.2600168585777283e-01" rms="3.5919624567031860e-01" purity="8.3540052175521851e-01" nType="0">
              <Node pos="l" depth="4" NCoef="0" IVar="-1" Cut="0.0000000000000000e+00" cType="1" res="1.7442982643842697e-02" rms="4.0356224775314331e-01" purity="7.6731926202774048e-01" nType="-99"/>
              <Node pos="r" depth="4" NCoef="0" IVar="-1" Cut="0.0000000000000000e+00" cType="1" res="3.8177732378244400e-02" rms="3.3033266663551331e-01" purity="8.7096774578094482e-01" nType="-99"/>
            </Node>
            <Node pos="r" depth="3" NCoef="0" IVar="6" Cut="2.7167193603515625e+02" cType="1" res="2.1261593326926231e-02" rms="4.3131878972053528e-01" purity="7.2413790225982666e-01" nType="0">
              <Node pos="l" depth="4" NCoef="0" IVar="-1" Cut="0.0000000000000000e+00" cType="1" res="-9.9994214251637459e-03" rms="4.6072429418563843e-01" purity="6.4801442623138428e-01" nType="-99"/>
              <Node pos="r" depth="4" NCoef="0" IVar="-1" Cut="0.0000000000000000e+00" cType="1" res="3.3274155110120773e-02" rms="3.4730041027069092e-01" purity="8.5759490728378296e-01" nType="-99"/>
            </Node>
          </Node>
        </Node>
      </Node>
    </BinaryTree>
    <BinaryTree type="DecisionTree" boostWeight="1.0000000000000000e+00" itree="12">
      <Node pos="s" depth="0" NCoef="0" IVar="5" Cut="5.5238094329833984e+00" cType="1" res="4.5170448720455170e-03" rms="3.9409726858139038e-01" purity="5.0808078050613403e-01" nType="0">
        <Node pos="l" depth="1" NCoef="0" IVar="6" Cut="3.1924917602539062e+02" cType="1" res="-6.4743198454380035e-02" rms="3.9148104190826416e-01" purity="2.8530606627464294e-01" nType="0">
          <Node pos="l" depth="2" NCoef="0" IVar="6" Cut="9.4711769104003906e+01" cType="1" res="-8.6127147078514099e-02" rms="3.8100036978721619e-01" purity="2.4510443210601807e-01" nType="0">
            <Node pos="l" depth="3" NCoef="0" IVar="7" Cut="4.7619048506021500e-02" cType="1" res="-1.2140318751335144e-01" rms="3.5253354907035828e-01" purity="1.8618382513523102e-01" nType="0">
              <Node pos="l" depth="4" NCoef="0" IVar="-1" Cut="0.0000000000000000e+00" cType="1" res="-4.4686228036880493e-02" rms="2.5602626800537109e-01" purity="7.7521897852420807e-02" nType="-99"/>
              <Node pos="r" depth="4" NCoef="0" IVar="-1" Cut="0.0000000000000000e+00" cType="1" res="-1.4647532254457474e-02" rms="4.5868769288063049e-01" purity="3.5385385155677795e-01" nType="-99"/>
            </Node>
            <Node pos="r" depth="3" NCoef="0" IVar="5" Cut="2.1428570747375488e+00" cType="1" res="8.5064411163330078e-02" rms="4.5951208472251892e-01" purity="5.3104108572006226e-01" nType="0">
              <Node pos="l" depth="4" NCoef="0" IVar="-1" Cut="0.0000000000000000e+00" cType="1" res="1.2019659392535686e-02" rms="4.7526684403419495e-01" purity="4.3837535381317139e-01" nType="-99"/>
              <Node pos="r" depth="4" NCoef="0" IVar="-1" Cut="0.0000000000000000e+00" cType="1" res="3.2658807933330536e-02" rms="4.1617429256439209e-01" purity="7.2972971200942993e-01" nType="-99"/>
            </Node>
          </Node>
          <Node pos="r" depth="2" NCoef="0" IVar="-1" Cut="0.0000000000000000e+00" cType="1" res="4.0888957679271698e-02" rms="4.2408058047294617e-01" purity="7.5815737247467041e-01" nType="-99"/>
        </Node>
        <Node pos="r" depth="1" NCoef="0" IVar="4" Cut="6.1904764175415039e+00" cType="1" res="9.2552095651626587e-02" rms="3.7957546114921570e-01" purity="7.9124450683593750e-01" nType="0">
          <Node pos="l" depth="2" NCoef="0" IVar="-1" Cut="0.0000000000000000e+00" cType="1" res="-7.0384545251727104e-03" rms="4.4717642664909363e-01" purity="5.8364313840866089e-01" nType="-99"/>
          <Node pos="r" depth="2" NCoef="0" IVar="5" Cut="1.0857142448425293e+01" cType="1" res="1.0676462948322296e-01" rms="3.6838352680206299e-01" purity="8.1504368782043457e-01" nType="0">
            <Node pos="l" depth="3" NCoef="0" IVar="6" Cut="2.6704968261718750e+02" cType="1" res="6.8485297262668610e-02" rms="4.0182009339332581e-01" purity="7.5883066654205322e-01" nType="0">
              <Node pos="l" depth="4" NCoef="0" IVar="-1" Cut="0.0000000000000000e+00" cType="1" res="5.8217132464051247e-03" rms="4.3009155988693237e-01" purity="6.9718950986862183e-01" nType="-99"/>
              <Node pos="r" depth="4" NCoef="0" IVar="-1" Cut="0.0000000000000000e+00" cType="1" res="3.9902217686176300e-02" rms="3.1828308105468750e-01" purity="8.8497215509414673e-01" nType="-99"/>
            </Node>
            <Node pos="r" depth="3" NCoef="0" IVar="1" Cut="-1.0108986496925354e-01" cType="1" res="1.2736596167087555e-01" rms="3.4732344746589661e-01" purity="8.4529662132263184e-01" nType="0">
              <Node pos="l" depth="4" NCoef="0" IVar="-1" Cut="0.0000000000000000e+00" cType="1" res="2.6961773633956909e-02" rms="3.6736953258514404e-01" purity="8.2322865724563599e-01" nType="-99"/>
              <Node pos="r" depth="4" NCoef="0" IVar="-1" Cut="0.0000000000000000e+00" cType="1" res="3.7103608250617981e-02" rms="3.2905435562133789e-01" purity="8.6325800418853760e-01" nType="-99"/>
            </Node>
          </Node>
        </Node>
      </Node>
    </BinaryTree>
    <BinaryTree type="DecisionTree" boostWeight="1.0000000000000000e+00" itree="13">
      <Node pos="s" depth="0" NCoef="0" IVar="5" Cut="5.7142858505249023e+00" cType="1" res="-6.8595726042985916e-04" rms="3.9084145426750183e-01" purity="4.9970990419387817e-01" nType="0">
        <Node pos="l" depth="1" NCoef="0" IVar="7" Cut="4.7619048506021500e-02" cType="1" res="-5.9528283774852753e-02" rms="3.8337224721908569e-01" purity="2.8542244434356689e-01" nType="0">
          <Node pos="l" depth="2" NCoef="0" IVar="4" Cut="9.3333330154418945e+00" cType="1" res="-1.0867214947938919e-01" rms="3.0074697732925415e-01" purity="1.3662338256835938e-01" nType="0">
            <Node pos="l" depth="3" NCoef="0" IVar="4" Cut="8.3333330154418945e+00" cType="1" res="-1.3947156071662903e-01" rms="1.9960707426071167e-01" purity="5.0234742462635040e-02" nType="0">
              <Node pos="l" depth="4" NCoef="0" IVar="-1" Cut="0.0000000000000000e+00" cType="1" res="-5.6496430188417435e-02" rms="1.1470776051282883e-01" purity="1.4070351608097553e-02" nType="-99"/>
              <Node pos="r" depth="4" NCoef="0" IVar="-1" Cut="0.0000000000000000e+00" cType="1" res="-3.8176402449607849e-02" rms="2.4964827299118042e-01" purity="8.1938326358795166e-02" nType="-99"/>
            </Node>
            <Node pos="r" depth="3" NCoef="0" IVar="5" Cut="1.1904761791229248e+00" cType="1" res="-7.0531010627746582e-02" rms="3.8792788982391357e-01" purity="2.4360464513301849e-01" nType="0">
              <Node pos="l" depth="4" NCoef="0" IVar="-1" Cut="0.0000000000000000e+00" cType="1" res="-2.3045307025313377e-02" rms="3.7162709236145020e-01" purity="1.8478260934352875e-01" nType="-99"/>
              <Node pos="r" depth="4" NCoef="0" IVar="-1" Cut="0.0000000000000000e+00" cType="1" res="2.4883651640266180e-03" rms="4.3854171037673950e-01" purity="4.8235294222831726e-01" nType="-99"/>
            </Node>
          </Node>
          <Node pos="r" depth="2" NCoef="0" IVar="3" Cut="8.7142858505249023e+00" cType="1" res="3.4766730386763811e-03" rms="4.6084374189376831e-01" purity="4.7619047760963440e-01" nType="0">
            <Node pos="l" depth="3" NCoef="0" IVar="-1" Cut="0.0000000000000000e+00" cType="1" res="-3.1705338507890701e-02" rms="3.9417368173599243e-01" purity="2.0385675132274628e-01" nType="-99"/>
            <Node pos="r" depth="3" NCoef="0" IVar="0" Cut="9.9179239273071289e+00" cType="1" res="2.3355921730399132e-02" rms="4.6577435731887817e-01" purity="5.1363635063171387e-01" nType="0">
              <Node pos="l" depth="4" NCoef="0" IVar="-1" Cut="0.0000000000000000e+00" cType="1" res="-3.7250338937155902e-04" rms="4.6632951498031616e-01" purity="4.7808587551116943e-01" nType="-99"/>
              <Node pos="r" depth="4" NCoef="0" IVar="-1" Cut="0.0000000000000000e+00" cType="1" res="3.4770876169204712e-02" rms="4.3735125660896301e-01" purity="7.1039605140686035e-01" nType="-99"/>
            </Node>
          </Node>
        </Node>
        <Node pos="r" depth="1" NCoef="0" IVar="4" Cut="6.1904764175415039e+00" cType="1" res="7.6682895421981812e-02" rms="3.8706851005554199e-01" purity="7.8146582841873169e-01" nType="0">
          <Node pos="l" depth="2" NCoef="0" IVar="-1" Cut="0.0000000000000000e+00" cType="1" res="-9.2216674238443375e-03" rms="4.5005956292152405e-01" purity="5.5984556674957275e-01" nType="-99"/>
          <Node pos="r" depth="2" NCoef="0" IVar="5" Cut="1.1142857551574707e+01" cType="1" res="8.9708611369132996e-02" rms="3.7722107768058777e-01" purity="8.0592244863510132e-01" nType="0">
            <Node pos="l" depth="3" NCoef="0" IVar="6" Cut="2.4908287048339844e+02" cType="1" res="5.8766040951013565e-02" rms="4.0721359848976135e-01" purity="7.6102566719055176e-01" nType="0">
              <Node pos="l" depth="4" NCoef="0" IVar="-1" Cut="0.0000000000000000e+00" cType="1" res="6.0749114491045475e-03" rms="4.3418332934379578e-01" purity="7.0560377836227417e-01" nType="-99"/>
              <Node pos="r" depth="4" NCoef="0" IVar="-1" Cut="0.0000000000000000e+00" cType="1" res="3.1625729054212570e-02" rms="3.4330123662948608e-01" purity="8.6383599042892456e-01" nType="-99"/>
            </Node>
            <Node pos="r" depth="3" NCoef="0" IVar="1" Cut="6.2025719881057739e-01" cType="1" res="1.1169768124818802e-01" rms="3.5272145271301270e-01" purity="8.3782798051834106e-01" nType="0">
              <Node pos="l" depth="4" NCoef="0" IVar="-1" Cut="0.0000000000000000e+00" cType="1" res="3.1577039510011673e-02" rms="3.4142309427261353e-01" purity="8.4761464595794678e-01" nType="-99"/>
              <Node pos="r" depth="4" NCoef="0" IVar="-1" Cut="0.0000000000000000e+00" cType="1" res="2.1117618307471275e-02" rms="3.9011070132255554e-01" purity="8.0170941352844238e-01" nType="-99"/>
            </Node>
          </Node>
        </Node>
      </Node>
    </BinaryTree>
    <BinaryTree type="DecisionTree" boostWeight="1.0000000000000000e+00" itree="14">
      <Node pos="s" depth="0" NCoef="0" IVar="7" Cut="4.7619048506021500e-02" cType="1" res="-2.1536603162530810e-04" rms="3.9373469352722168e-01" purity="4.9970749020576477e-01" nType="0">
        <Node pos="l" depth="1" NCoef="0" IVar="6" Cut="2.4622201538085938e+02" cType="1" res="-6.9902025163173676e-02" rms="3.4931227564811707e-01" purity="2.6211106777191162e-01" nType="0">
          <Node pos="l" depth="2" NCoef="0" IVar="6" Cut="6.2438320159912109e+01" cType="1" res="-1.0045243054628372e-01" rms="3.3575770258903503e-01" purity="1.9727891683578491e-01" nType="0">
            <Node pos="l" depth="3" NCoef="0" IVar="5" Cut="4.3809523582458496e+00" cType="1" res="-1.5105685591697693e-01" rms="2.8813683986663818e-01" purity="1.0315850377082825e-01" nType="0">
              <Node pos="l" depth="4" NCoef="0" IVar="-1" Cut="0.0000000000000000e+00" cType="1" res="-4.1016507893800735e-02" rms="2.4939563870429993e-01" purity="7.2154112160205841e-02" nType="-99"/>
              <Node pos="r" depth="4" NCoef="0" IVar="-1" Cut="0.0000000000000000e+00" cType="1" res="-5.8858998119831085e-02" rms="4.1035592555999756e-01" purity="2.5167784094810486e-01" nType="-99"/>
            </Node>
            <Node pos="r" depth="3" NCoef="0" IVar="5" Cut="4.4761905670166016e+00" cType="1" res="5.7446159422397614e-02" rms="4.1534912586212158e-01" purity="4.9095842242240906e-01" nType="0">
              <Node pos="l" depth="4" NCoef="0" IVar="-1" Cut="0.0000000000000000e+00" cType="1" res="-2.8722300194203854e-03" rms="4.2942404747009277e-01" purity="2.8209191560745239e-01" nType="-99"/>
              <Node pos="r" depth="4" NCoef="0" IVar="-1" Cut="0.0000000000000000e+00" cType="1" res="3.3855400979518890e-02" rms="3.7694403529167175e-01" purity="7.6842105388641357e-01" nType="-99"/>
            </Node>
          </Node>
          <Node pos="r" depth="2" NCoef="0" IVar="-1" Cut="0.0000000000000000e+00" cType="1" res="4.8816461116075516e-02" rms="3.5167071223258972e-01" purity="8.2917463779449463e-01" nType="-99"/>
        </Node>
        <Node pos="r" depth="1" NCoef="0" IVar="5" Cut="2.5238094329833984e+00" cType="1" res="5.1166784018278122e-02" rms="4.1610580682754517e-01" purity="6.7489475011825562e-01" nType="0">
          <Node pos="l" depth="2" NCoef="0" IVar="3" Cut="1.3952381134033203e+01" cType="1" res="-2.0233096554875374e-02" rms="4.6647229790687561e-01" purity="3.9027982950210571e-01" nType="0">
            <Node pos="l" depth="3" NCoef="0" IVar="1" Cut="8.4596586227416992e-01" cType="1" res="-4.7365393489599228e-02" rms="4.6129167079925537e-01" purity="3.5277178883552551e-01" nType="0">
              <Node pos="l" depth="4" NCoef="0" IVar="-1" Cut="0.0000000000000000e+00" cType="1" res="-5.0346581265330315e-03" rms="4.6734106540679932e-01" purity="3.7847867608070374e-01" nType="-99"/>
              <Node pos="r" depth="4" NCoef="0" IVar="-1" Cut="0.0000000000000000e+00" cType="1" res="-2.7654010802507401e-02" rms="4.2962741851806641e-01" purity="2.6366558670997620e-01" nType="-99"/>
            </Node>
            <Node pos="r" depth="3" NCoef="0" IVar="5" Cut="9.5238097012042999e-02" cType="1" res="3.7925478070974350e-02" rms="4.7216370701789856e-01" purity="4.7067901492118835e-01" nType="0">
              <Node pos="l" depth="4" NCoef="0" IVar="-1" Cut="0.0000000000000000e+00" cType="1" res="-2.4034278467297554e-03" rms="4.6765851974487305e-01" purity="4.0129449963569641e-01" nType="-99"/>
              <Node pos="r" depth="4" NCoef="0" IVar="-1" Cut="0.0000000000000000e+00" cType="1" res="1.7265923321247101e-02" rms="4.7176635265350342e-01" purity="5.3392332792282104e-01" nType="-99"/>
            </Node>
          </Node>
          <Node pos="r" depth="2" NCoef="0" IVar="5" Cut="2.4428571701049805e+01" cType="1" res="8.1154733896255493e-02" rms="3.8914474844932556e-01" purity="7.9443299770355225e-01" nType="0">
            <Node pos="l" depth="3" NCoef="0" IVar="4" Cut="1.0380952835083008e+01" cType="1" res="7.1643836796283722e-02" rms="3.9601269364356995e-01" purity="7.8165221214294434e-01" nType="0">
              <Node pos="l" depth="4" NCoef="0" IVar="-1" Cut="0.0000000000000000e+00" cType="1" res="2.0125323906540871e-02" rms="3.9078202843666077e-01" purity="7.9097938537597656e-01" nType="-99"/>
              <Node pos="r" depth="4" NCoef="0" IVar="-1" Cut="0.0000000000000000e+00" cType="1" res="-8.5267832037061453e-04" rms="4.3731793761253357e-01" purity="6.8956744670867920e-01" nType="-99"/>
            </Node>
            <Node pos="r" depth="3" NCoef="0" IVar="-1" Cut="0.0000000000000000e+00" cType="1" res="4.0816396474838257e-02" rms="3.2537531852722168e-01" purity="8.8908147811889648e-01" nType="-99"/>
          </Node>
        </Node>
      </Node>
    </BinaryTree>
    <BinaryTree type="DecisionTree" boostWeight="1.0000000000000000e+00" itree="15">
      <Node pos="s" depth="0" NCoef="0" IVar="7" Cut="4.7619048506021500e-02" cType="1" res="-1.8586330115795135e-03" rms="3.8522732257843018e-01" purity="4.9813053011894226e-01" nType="0">
        <Node pos="l" depth="1" NCoef="0" IVar="4" Cut="1.3523809432983398e+01" cType="1" res="-6.5498240292072296e-02" rms="3.3669832348823547e-01" purity="2.5722256302833557e-01" nType="0">
          <Node pos="l" depth="2" NCoef="0" IVar="4" Cut="9.3333330154418945e+00" cType="1" res="-5.2541822195053101e-02" rms="3.3239659667015076e-01" purity="2.6008969545364380e-01" nType="0">
            <Node pos="l" depth="3" NCoef="0" IVar="5" Cut="1.0857142448425293e+01" cType="1" res="-9.1353774070739746e-02" rms="2.7819961309432983e-01" purity="1.8150208890438080e-01" nType="0">
              <Node pos="l" depth="4" NCoef="0" IVar="-1" Cut="0.0000000000000000e+00" cType="1" res="-4.0109708905220032e-02" rms="2.3530718684196472e-01" purity="8.7930321693420410e-02" nType="-99"/>
              <Node pos="r" depth="4" NCoef="0" IVar="-1" Cut="0.0000000000000000e+00" cType="1" res="8.3393137902021408e-03" rms="4.1505229473114014e-01" purity="6.6666668653488159e-01" nType="-99"/>
            </Node>
            <Node pos="r" depth="3" NCoef="0" IVar="5" Cut="1.9047619104385376e+00" cType="1" res="9.2308204621076584e-03" rms="3.9616122841835022e-01" purity="3.8516879081726074e-01" nType="0">
              <Node pos="l" depth="4" NCoef="0" IVar="-1" Cut="0.0000000000000000e+00" cType="1" res="-1.1585225351154804e-02" rms="3.9113280177116394e-01" purity="2.1462638676166534e-01" nType="-99"/>
              <Node pos="r" depth="4" NCoef="0" IVar="-1" Cut="0.0000000000000000e+00" cType="1" res="3.1082499772310257e-02" rms="3.8085338473320007e-01" purity="7.7595627307891846e-01" nType="-99"/>
            </Node>
          </Node>
          <Node pos="r" depth="2" NCoef="0" IVar="-1" Cut="0.0000000000000000e+00" cType="1" res="-5.6681118905544281e-02" rms="3.4428596496582031e-01" purity="2.1726191043853760e-01" nType="-99"/>
        </Node>
        <Node pos="r" depth="1" NCoef="0" IVar="5" Cut="5.5238094329833984e+00" cType="1" res="4.5467961579561234e-02" rms="4.1134202480316162e-01" purity="6.7728555202484131e-01" nType="0">
          <Node pos="l" depth="2" NCoef="0" IVar="4" Cut="9.3333330154418945e+00" cType="1" res="-2.4796924553811550e-03" rms="4.5789882540702820e-01" purity="4.7379603981971741e-01" nType="0">
            <Node pos="l" depth="3" NCoef="0" IVar="3" Cut="1.2523809432983398e+01" cType="1" res="-6.9884411990642548e-02" rms="4.3668329715728760e-01" purity="3.6446470022201538e-01" nType="0">
              <Node pos="l" depth="4" NCoef="0" IVar="-1" Cut="0.0000000000000000e+00" cType="1" res="-3.0821740627288818e-02" rms="4.0253052115440369e-01" purity="2.3778501152992249e-01" nType="-99"/>
              <Node pos="r" depth="4" NCoef="0" IVar="-1" Cut="0.0000000000000000e+00" cType="1" res="-7.4567897245287895e-03" rms="4.4998720288276672e-01" purity="4.3257442116737366e-01" nType="-99"/>
            </Node>
            <Node pos="r" depth="3" NCoef="0" IVar="2" Cut="9.6439450979232788e-01" cType="1" res="2.7932096272706985e-02" rms="4.6396073698997498e-01" purity="5.2312433719635010e-01" nType="0">
              <Node pos="l" depth="4" NCoef="0" IVar="-1" Cut="0.0000000000000000e+00" cType="1" res="1.4800194650888443e-02" rms="4.5372945070266724e-01" purity="5.7015812397003174e-01" nType="-99"/>
              <Node pos="r" depth="4" NCoef="0" IVar="-1" Cut="0.0000000000000000e+00" cType="1" res="-3.4992103464901447e-03" rms="4.7079047560691833e-01" purity="4.7216275334358215e-01" nType="-99"/>
            </Node>
          </Node>
          <Node pos="r" depth="2" NCoef="0" IVar="3" Cut="1.5380952835083008e+01" cType="1" res="7.9965844750404358e-02" rms="3.7046045064926147e-01" purity="8.2369428873062134e-01" nType="0">
            <Node pos="l" depth="3" NCoef="0" IVar="4" Cut="9.3333330154418945e+00" cType="1" res="5.8866180479526520e-02" rms="3.9482626318931580e-01" purity="7.8563827276229858e-01" nType="0">
              <Node pos="l" depth="4" NCoef="0" IVar="-1" Cut="0.0000000000000000e+00" cType="1" res="7.5048431754112244e-03" rms="4.1826716065406799e-01" purity="7.3878020048141479e-01" nType="-99"/>
              <Node pos="r" depth="4" NCoef="0" IVar="-1" Cut="0.0000000000000000e+00" cType="1" res="2.2701798006892204e-02" rms="3.7155890464782715e-01" purity="8.2591491937637329e-01" nType="-99"/>
            </Node>
            <Node pos="r" depth="3" NCoef="0" IVar="2" Cut="9.4330829381942749e-01" cType="1" res="9.9363088607788086e-02" rms="3.4541726112365723e-01" purity="8.5867971181869507e-01" nType="0">
              <Node pos="l" depth="4" NCoef="0" IVar="-1" Cut="0.0000000000000000e+00" cType="1" res="3.5529308021068573e-02" rms="3.1069409847259521e-01" purity="8.9134806394577026e-01" nType="-99"/>
              <Node pos="r" depth="4" NCoef="0" IVar="-1" Cut="0.0000000000000000e+00" cType="1" res="1.9815884530544281e-02" rms="3.7337070703506470e-01" purity="8.2778304815292358e-01" nType="-99"/>
            </Node>
          </Node>
        </Node>
      </Node>
    </BinaryTree>
    <BinaryTree type="DecisionTree" boostWeight="1.0000000000000000e+00" itree="16">
      <Node pos="s" depth="0" NCoef="0" IVar="5" Cut="8.2857141494750977e+00" cType="1" res="1.4846323756501079e-03" rms="3.8428667187690735e-01" purity="5.0325721502304077e-01" nType="0">
        <Node pos="l" depth="1" NCoef="0" IVar="6" Cut="3.1925579833984375e+02" cType="1" res="-4.0183924138545990e-02" rms="3.8698294758796692e-01" purity="3.3688753843307495e-01" nType="0">
          <Node pos="l" depth="2" NCoef="0" IVar="6" Cut="6.4785942077636719e+01" cType="1" res="-5.6957881897687912e-02" rms="3.8115659356117249e-01" purity="2.8952166438102722e-01" nType="0">
            <Node pos="l" depth="3" NCoef="0" IVar="7" Cut="4.7619048506021500e-02" cType="1" res="-9.7215600311756134e-02" rms="3.4541448950767517e-01" purity="1.9506369531154633e-01" nType="0">
              <Node pos="l" depth="4" NCoef="0" IVar="-1" Cut="0.0000000000000000e+00" cType="1" res="-4.1332382708787918e-02" rms="2.5195157527923584e-01" purity="7.4038147926330566e-02" nType="-99"/>
              <Node pos="r" depth="4" NCoef="0" IVar="-1" Cut="0.0000000000000000e+00" cType="1" res="-1.2198299169540405e-02" rms="4.5381888747215271e-01" purity="3.8891765475273132e-01" nType="-99"/>
            </Node>
            <Node pos="r" depth="3" NCoef="0" IVar="6" Cut="8.9024757385253906e+01" cType="1" res="3.9125148206949234e-02" rms="4.4063696265220642e-01" purity="5.1496434211730957e-01" nType="0">
              <Node pos="l" depth="4" NCoef="0" IVar="-1" Cut="0.0000000000000000e+00" cType="1" res="-5.6318538263440132e-03" rms="4.3459475040435791e-01" purity="3.8370117545127869e-01" nType="-99"/>
              <Node pos="r" depth="4" NCoef="0" IVar="-1" Cut="0.0000000000000000e+00" cType="1" res="1.4683105982840061e-02" rms="4.4058310985565186e-01" purity="5.6596308946609497e-01" nType="-99"/>
            </Node>
          </Node>
          <Node pos="r" depth="2" NCoef="0" IVar="5" Cut="3.0476191043853760e+00" cType="1" res="1.1947104334831238e-01" rms="4.0519800782203674e-01" purity="7.8771698474884033e-01" nType="0">
            <Node pos="l" depth="3" NCoef="0" IVar="-1" Cut="0.0000000000000000e+00" cType="1" res="3.7158709019422531e-02" rms="4.4187355041503906e-01" purity="7.2929936647415161e-01" nType="-99"/>
            <Node pos="r" depth="3" NCoef="0" IVar="-1" Cut="0.0000000000000000e+00" cType="1" res="2.2069111466407776e-02" rms="3.7209609150886536e-01" purity="8.2988506555557251e-01" nType="-99"/>
          </Node>
        </Node>
        <Node pos="r" depth="1" NCoef="0" IVar="3" Cut="9.4285717010498047e+00" cType="1" res="7.8741602599620819e-02" rms="3.6692339181900024e-01" purity="8.1172043085098267e-01" nType="0">
          <Node pos="l" depth="2" NCoef="0" IVar="-1" Cut="0.0000000000000000e+00" cType="1" res="1.2335789506323636e-04" rms="4.8005419969558716e-01" purity="4.7383719682693481e-01" nType="-99"/>
          <Node pos="r" depth="2" NCoef="0" IVar="0" Cut="9.4538173675537109e+00" cType="1" res="8.5627943277359009e-02" rms="3.5440951585769653e-01" purity="8.4148526191711426e-01" nType="0">
            <Node pos="l" depth="3" NCoef="0" IVar="0" Cut="1.4023294448852539e+00" cType="1" res="9.4017945230007172e-02" rms="3.4649237990379333e-01" purity="8.4732115268707275e-01" nType="0">
              <Node pos="l" depth="4" NCoef="0" IVar="-1" Cut="0.0000000000000000e+00" cType="1" res="6.3617439009249210e-03" rms="4.1045722365379333e-01" purity="7.4833333492279053e-01" nType="-99"/>
              <Node pos="r" depth="4" NCoef="0" IVar="-1" Cut="0.0000000000000000e+00" cType="1" res="3.0601028352975845e-02" rms="3.2811260223388672e-01" purity="8.6991250514984131e-01" nType="-99"/>
            </Node>
            <Node pos="r" depth="3" NCoef="0" IVar="4" Cut="9.3333330154418945e+00" cType="1" res="4.5552052557468414e-02" rms="3.8751757144927979e-01" purity="8.1360948085784912e-01" nType="0">
              <Node pos="l" depth="4" NCoef="0" IVar="-1" Cut="0.0000000000000000e+00" cType="1" res="3.7243112456053495e-03" rms="4.1394913196563721e-01" purity="7.7747255563735962e-01" nType="-99"/>
              <Node pos="r" depth="4" NCoef="0" IVar="-1" Cut="0.0000000000000000e+00" cType="1" res="2.3715838789939880e-02" rms="3.5047057271003723e-01" purity="8.5576921701431274e-01" nType="-99"/>
            </Node>
          </Node>
        </Node>
      </Node>
    </BinaryTree>
    <BinaryTree type="DecisionTree" boostWeight="1.0000000000000000e+00" itree="17">
      <Node pos="s" depth="0" NCoef="0" IVar="5" Cut="2.7619047164916992e+00" cType="1" res="5.8480268344283104e-03" rms="3.8031345605850220e-01" purity="5.0936388969421387e-01" nType="0">
        <Node pos="l" depth="1" NCoef="0" IVar="4" Cut="8.2857141494750977e+00" cType="1" res="-5.2786532789468765e-02" rms="3.6787298321723938e-01" purity="2.2338007390499115e-01" nType="0">
          <Node pos="l" depth="2" NCoef="0" IVar="2" Cut="9.4786125421524048e-01" cType="1" res="-1.2003072351217270e-01" rms="1.3219667971134186e-01" purity="1.7766498029232025e-02" nType="0">
            <Node pos="l" depth="3" NCoef="0" IVar="-1" Cut="0.0000000000000000e+00" cType="1" res="-4.8502933233976364e-02" rms="1.5097126364707947e-01" purity="2.5210084393620491e-02" nType="-99"/>
            <Node pos="r" depth="3" NCoef="0" IVar="-1" Cut="0.0000000000000000e+00" cType="1" res="-5.7768616825342178e-02" rms="9.4958022236824036e-02" purity="6.4102564938366413e-03" nType="-99"/>
          </Node>
          <Node pos="r" depth="2" NCoef="0" IVar="5" Cut="1.0476191043853760e+00" cType="1" res="-4.0985099971294403e-02" rms="3.9380362629890442e-01" purity="2.5946548581123352e-01" nType="0">
            <Node pos="l" depth="3" NCoef="0" IVar="6" Cut="2.3908215332031250e+02" cType="1" res="-5.4317858070135117e-02" rms="3.8153687119483948e-01" purity="2.3001508414745331e-01" nType="0">
              <Node pos="l" depth="4" NCoef="0" IVar="-1" Cut="0.0000000000000000e+00" cType="1" res="-2.0520176738500595e-02" rms="3.6774301528930664e-01" purity="1.9226579368114471e-01" nType="-99"/>
              <Node pos="r" depth="4" NCoef="0" IVar="-1" Cut="0.0000000000000000e+00" cType="1" res="4.2093213647603989e-02" rms="4.4706857204437256e-01" purity="6.8300652503967285e-01" nType="-99"/>
            </Node>
            <Node pos="r" depth="3" NCoef="0" IVar="-1" Cut="0.0000000000000000e+00" cType="1" res="1.3799360021948814e-02" rms="4.6568736433982849e-01" purity="4.8828125000000000e-01" nType="-99"/>
          </Node>
        </Node>
        <Node pos="r" depth="1" NCoef="0" IVar="7" Cut="4.7619048506021500e-02" cType="1" res="5.1072809845209122e-02" rms="3.8356277346611023e-01" purity="7.2994303703308105e-01" nType="0">
          <Node pos="l" depth="2" NCoef="0" IVar="6" Cut="2.5083795166015625e+02" cType="1" res="6.0756935272365808e-04" rms="3.8554298877716064e-01" purity="5.4385054111480713e-01" nType="0">
            <Node pos="l" depth="3" NCoef="0" IVar="6" Cut="6.3479362487792969e+01" cType="1" res="-4.7695342451334000e-02" rms="4.0528100728988647e-01" purity="4.2991280555725098e-01" nType="0">
              <Node pos="l" depth="4" NCoef="0" IVar="-1" Cut="0.0000000000000000e+00" cType="1" res="-4.1667569428682327e-02" rms="3.8049277663230896e-01" purity="2.2626931965351105e-01" nType="-99"/>
              <Node pos="r" depth="4" NCoef="0" IVar="-1" Cut="0.0000000000000000e+00" cType="1" res="3.2611381262540817e-02" rms="3.7088248133659363e-01" purity="7.4529916048049927e-01" nType="-99"/>
            </Node>
            <Node pos="r" depth="3" NCoef="0" IVar="-1" Cut="0.0000000000000000e+00" cType="1" res="4.7567754983901978e-02" rms="2.4494856595993042e-01" purity="9.3348622322082520e-01" nType="-99"/>
          </Node>
          <Node pos="r" depth="2" NCoef="0" IVar="5" Cut="1.0857142448425293e+01" cType="1" res="7.0854447782039642e-02" rms="3.8096430897712708e-01" purity="8.0288851261138916e-01" nType="0">
            <Node pos="l" depth="3" NCoef="0" IVar="3" Cut="1.0142857551574707e+01" cType="1" res="5.1514629274606705e-02" rms="4.1251236200332642e-01" purity="7.4574714899063110e-01" nType="0">
              <Node pos="l" depth="4" NCoef="0" IVar="-1" Cut="0.0000000000000000e+00" cType="1" res="-2.9036584310233593e-03" rms="4.3920356035232544e-01" purity="5.8284026384353638e-01" nType="-99"/>
              <Node pos="r" depth="4" NCoef="0" IVar="-1" Cut="0.0000000000000000e+00" cType="1" res="1.5907689929008484e-02" rms="4.0630295872688293e-01" purity="7.7572131156921387e-01" nType="-99"/>
            </Node>
            <Node pos="r" depth="3" NCoef="0" IVar="2" Cut="7.1671348810195923e-01" cType="1" res="8.6200706660747528e-02" rms="3.5318261384963989e-01" purity="8.4823060035705566e-01" nType="0">
              <Node pos="l" depth="4" NCoef="0" IVar="-1" Cut="0.0000000000000000e+00" cType="1" res="3.1311258673667908e-02" rms="3.3313995599746704e-01" purity="8.5977858304977417e-01" nType="-99"/>
              <Node pos="r" depth="4" NCoef="0" IVar="-1" Cut="0.0000000000000000e+00" cType="1" res="2.2092612460255623e-02" rms="3.6087113618850708e-01" purity="8.4336102008819580e-01" nType="-99"/>
            </Node>
          </Node>
        </Node>
      </Node>
    </BinaryTree>
    <BinaryTree type="DecisionTree" boostWeight="1.0000000000000000e+00" itree="18">
      <Node pos="s" depth="0" NCoef="0" IVar="7" Cut="4.7619048506021500e-02" cType="1" res="7.7362009324133396e-03" rms="3.7981179356575012e-01" purity="5.0754272937774658e-01" nType="0">
        <Node pos="l" depth="1" NCoef="0" IVar="5" Cut="9.1428575515747070e+00" cType="1" res="-4.3546151369810104e-02" rms="3.2993242144584656e-01" purity="2.6918512582778931e-01" nType="0">
          <Node pos="l" depth="2" NCoef="0" IVar="4" Cut="8.2857141494750977e+00" cType="1" res="-6.2127932906150818e-02" rms="3.1523212790489197e-01" purity="1.8310524523258209e-01" nType="0">
            <Node pos="l" depth="3" NCoef="0" IVar="5" Cut="2.1428570747375488e+00" cType="1" res="-1.1404617875814438e-01" rms="2.0518776774406433e-01" purity="5.1011431962251663e-02" nType="0">
              <Node pos="l" depth="4" NCoef="0" IVar="-1" Cut="0.0000000000000000e+00" cType="1" res="-5.0089158117771149e-02" rms="1.0318713635206223e-01" purity="1.1041009798645973e-02" nType="-99"/>
              <Node pos="r" depth="4" NCoef="0" IVar="-1" Cut="0.0000000000000000e+00" cType="1" res="-4.3017234653234482e-02" rms="2.8384321928024292e-01" purity="1.0139165073633194e-01" nType="-99"/>
            </Node>
            <Node pos="r" depth="3" NCoef="0" IVar="5" Cut="1.2857142686843872e+00" cType="1" res="-4.3091803789138794e-02" rms="3.4499090909957886e-01" purity="2.3153820633888245e-01" nType="0">
              <Node pos="l" depth="4" NCoef="0" IVar="-1" Cut="0.0000000000000000e+00" cType="1" res="-2.0910410210490227e-02" rms="3.1647592782974243e-01" purity="1.3282892107963562e-01" nType="-99"/>
              <Node pos="r" depth="4" NCoef="0" IVar="-1" Cut="0.0000000000000000e+00" cType="1" res="5.8945724740624428e-03" rms="4.1848671436309814e-01" purity="5.5678671598434448e-01" nType="-99"/>
            </Node>
          </Node>
          <Node pos="r" depth="2" NCoef="0" IVar="6" Cut="1.4519410705566406e+02" cType="1" res="5.2724752575159073e-02" rms="3.8332083821296692e-01" purity="7.1515893936157227e-01" nType="0">
            <Node pos="l" depth="3" NCoef="0" IVar="-1" Cut="0.0000000000000000e+00" cType="1" res="-3.5800861660391092e-03" rms="4.3721070885658264e-01" purity="5.6410259008407593e-01" nType="-99"/>
            <Node pos="r" depth="3" NCoef="0" IVar="-1" Cut="0.0000000000000000e+00" cType="1" res="4.2586520314216614e-02" rms="2.7023252844810486e-01" purity="9.1714286804199219e-01" nType="-99"/>
          </Node>
        </Node>
        <Node pos="r" depth="1" NCoef="0" IVar="1" Cut="8.3271938562393188e-01" cType="1" res="4.5444689691066742e-02" rms="4.0857368707656860e-01" purity="6.8280977010726929e-01" nType="0">
          <Node pos="l" depth="2" NCoef="0" IVar="2" Cut="1.6271388530731201e+00" cType="1" res="5.8863319456577301e-02" rms="4.0099564194679260e-01" purity="7.0654749870300293e-01" nType="0">
            <Node pos="l" depth="3" NCoef="0" IVar="1" Cut="3.6008590459823608e-01" cType="1" res="6.9463185966014862e-02" rms="3.9652562141418457e-01" purity="7.2197777032852173e-01" nType="0">
              <Node pos="l" depth="4" NCoef="0" IVar="-1" Cut="0.0000000000000000e+00" cType="1" res="1.5486590564250946e-02" rms="4.0205258131027222e-01" purity="7.0731705427169800e-01" nType="-99"/>
              <Node pos="r" depth="4" NCoef="0" IVar="-1" Cut="0.0000000000000000e+00" cType="1" res="2.8190951794385910e-02" rms="3.7012669444084167e-01" purity="7.8346025943756104e-01" nType="-99"/>
            </Node>
            <Node pos="r" depth="3" NCoef="0" IVar="5" Cut="8.0000000000000000e+00" cType="1" res="-1.2394677847623825e-02" rms="4.2300108075141907e-01" purity="6.0281687974929810e-01" nType="0">
              <Node pos="l" depth="4" NCoef="0" IVar="-1" Cut="0.0000000000000000e+00" cType="1" res="-1.3271904550492764e-02" rms="4.5055696368217468e-01" purity="4.3121692538261414e-01" nType="-99"/>
              <Node pos="r" depth="4" NCoef="0" IVar="-1" Cut="0.0000000000000000e+00" cType="1" res="1.1677297763526440e-02" rms="3.8211122155189514e-01" purity="7.9819279909133911e-01" nType="-99"/>
            </Node>
          </Node>
          <Node pos="r" depth="2" NCoef="0" IVar="3" Cut="1.2904762268066406e+01" cType="1" res="-7.3725017718970776e-03" rms="4.3310734629631042e-01" purity="5.8937543630599976e-01" nType="0">
            <Node pos="l" depth="3" NCoef="0" IVar="-1" Cut="0.0000000000000000e+00" cType="1" res="-1.6575049608945847e-02" rms="4.5213508605957031e-01" purity="4.0835267305374146e-01" nType="-99"/>
            <Node pos="r" depth="3" NCoef="0" IVar="2" Cut="8.6950165033340454e-01" cType="1" res="2.2100275382399559e-02" rms="4.2098444700241089e-01" purity="6.7047816514968872e-01" nType="0">
              <Node pos="l" depth="4" NCoef="0" IVar="-1" Cut="0.0000000000000000e+00" cType="1" res="2.1986113861203194e-02" rms="3.7627717852592468e-01" purity="7.5202155113220215e-01" nType="-99"/>
              <Node pos="r" depth="4" NCoef="0" IVar="-1" Cut="0.0000000000000000e+00" cType="1" res="-4.3875137344002724e-03" rms="4.4210377335548401e-01" purity="6.1928933858871460e-01" nType="-99"/>
            </Node>
          </Node>
        </Node>
      </Node>
    </BinaryTree>
    <BinaryTree type="DecisionTree" boostWeight="1.0000000000000000e+00" itree="19">
      <Node pos="s" depth="0" NCoef="0" IVar="5" Cut="5.3333334922790527e+00" cType="1" res="5.4455203935503960e-03" rms="3.7446054816246033e-01" purity="5.0577867031097412e-01" nType="0">
        <Node pos="l" depth="1" NCoef="0" IVar="4" Cut="1.0380952835083008e+01" cType="1" res="-3.3018536865711212e-02" rms="3.7752205133438110e-01" purity="2.8437545895576477e-01" nType="0">
          <Node pos="l" depth="2" NCoef="0" IVar="4" Cut="9.2380952835083008e+00" cType="1" res="-2.3679101839661598e-02" rms="3.7863829731941223e-01" purity="2.9247608780860901e-01" nType="0">
            <Node pos="l" depth="3" NCoef="0" IVar="4" Cut="8.3333330154418945e+00" cType="1" res="-6.9127485156059265e-02" rms="2.9576262831687927e-01" purity="1.5046916902065277e-01" nType="0">
              <Node pos="l" depth="4" NCoef="0" IVar="-1" Cut="0.0000000000000000e+00" cType="1" res="-4.4803649187088013e-02" rms="2.0228938758373260e-01" purity="5.1303617656230927e-02" nType="-99"/>
              <Node pos="r" depth="4" NCoef="0" IVar="-1" Cut="0.0000000000000000e+00" cType="1" res="-1.3205320574343204e-02" rms="3.4134173393249512e-01" purity="2.1615599095821381e-01" nType="-99"/>
            </Node>
            <Node pos="r" depth="3" NCoef="0" IVar="5" Cut="1.1904761791229248e+00" cType="1" res="1.5046759508550167e-02" rms="4.3327987194061279e-01" purity="4.1347801685333252e-01" nType="0">
              <Node pos="l" depth="4" NCoef="0" IVar="-1" Cut="0.0000000000000000e+00" cType="1" res="-2.2242888808250427e-03" rms="4.2730498313903809e-01" purity="3.1093749403953552e-01" nType="-99"/>
              <Node pos="r" depth="4" NCoef="0" IVar="-1" Cut="0.0000000000000000e+00" cType="1" res="1.7970193177461624e-02" rms="4.4254711270332336e-01" purity="6.9214439392089844e-01" nType="-99"/>
            </Node>
          </Node>
          <Node pos="r" depth="2" NCoef="0" IVar="-1" Cut="0.0000000000000000e+00" cType="1" res="-5.0867050886154175e-02" rms="3.0614298582077026e-01" purity="1.3119533658027649e-01" nType="-99"/>
        </Node>
        <Node pos="r" depth="1" NCoef="0" IVar="4" Cut="8.2857141494750977e+00" cType="1" res="5.5978618562221527e-02" rms="3.6427846550941467e-01" purity="7.9665255546569824e-01" nType="0">
          <Node pos="l" depth="2" NCoef="0" IVar="6" Cut="7.7465866088867188e+01" cType="1" res="1.9607426598668098e-02" rms="3.9388120174407959e-01" purity="7.0660936832427979e-01" nType="0">
            <Node pos="l" depth="3" NCoef="0" IVar="7" Cut="4.7619048506021500e-02" cType="1" res="-3.7872169166803360e-02" rms="4.1728144884109497e-01" purity="5.8299177885055542e-01" nType="0">
              <Node pos="l" depth="4" NCoef="0" IVar="-1" Cut="0.0000000000000000e+00" cType="1" res="-4.0244698524475098e-02" rms="4.1033992171287537e-01" purity="2.8248587250709534e-01" nType="-99"/>
              <Node pos="r" depth="4" NCoef="0" IVar="-1" Cut="0.0000000000000000e+00" cType="1" res="1.2052342295646667e-02" rms="3.9777219295501709e-01" purity="7.5401932001113892e-01" nType="-99"/>
            </Node>
            <Node pos="r" depth="3" NCoef="0" IVar="6" Cut="1.4646710205078125e+02" cType="1" res="8.2997351884841919e-02" rms="3.5573491454124451e-01" purity="8.4293782711029053e-01" nType="0">
              <Node pos="l" depth="4" NCoef="0" IVar="-1" Cut="0.0000000000000000e+00" cType="1" res="3.1342465430498123e-02" rms="3.4356752038002014e-01" purity="8.4638553857803345e-01" nType="-99"/>
              <Node pos="r" depth="4" NCoef="0" IVar="-1" Cut="0.0000000000000000e+00" cType="1" res="1.9063413143157959e-02" rms="3.6152887344360352e-01" purity="8.4086799621582031e-01" nType="-99"/>
            </Node>
          </Node>
          <Node pos="r" depth="2" NCoef="0" IVar="0" Cut="1.4585013389587402e+01" cType="1" res="7.6262339949607849e-02" rms="3.4501180052757263e-01" purity="8.4686845541000366e-01" nType="0">
            <Node pos="l" depth="3" NCoef="0" IVar="4" Cut="1.0428571701049805e+01" cType="1" res="8.5960097610950470e-02" rms="3.3490917086601257e-01" purity="8.5600531101226807e-01" nType="0">
              <Node pos="l" depth="4" NCoef="0" IVar="-1" Cut="0.0000000000000000e+00" cType="1" res="2.9225677251815796e-02" rms="3.1668958067893982e-01" purity="8.8232898712158203e-01" nType="-99"/>
              <Node pos="r" depth="4" NCoef="0" IVar="-1" Cut="0.0000000000000000e+00" cType="1" res="9.1454396024346352e-03" rms="4.0154281258583069e-01" purity="7.4014335870742798e-01" nType="-99"/>
            </Node>
